tree
version=v4
num_class=1
num_tree_per_iteration=1
label_index=0
max_feature_idx=767
objective=regression
feature_names=Column_0 Column_1 Column_2 Column_3 Column_4 Column_5 Column_6 Column_7 Column_8 Column_9 Column_10 Column_11 Column_12 Column_13 Column_14 Column_15 Column_16 Column_17 Column_18 Column_19 Column_20 Column_21 Column_22 Column_23 Column_24 Column_25 Column_26 Column_27 Column_28 Column_29 Column_30 Column_31 Column_32 Column_33 Column_34 Column_35 Column_36 Column_37 Column_38 Column_39 Column_40 Column_41 Column_42 Column_43 Column_44 Column_45 Column_46 Column_47 Column_48 Column_49 Column_50 Column_51 Column_52 Column_53 Column_54 Column_55 Column_56 Column_57 Column_58 Column_59 Column_60 Column_61 Column_62 Column_63 Column_64 Column_65 Column_66 Column_67 Column_68 Column_69 Column_70 Column_71 Column_72 Column_73 Column_74 Column_75 Column_76 Column_77 Column_78 Column_79 Column_80 Column_81 Column_82 Column_83 Column_84 Column_85 Column_86 Column_87 Column_88 Column_89 Column_90 Column_91 Column_92 Column_93 Column_94 Column_95 Column_96 Column_97 Column_98 Column_99 Column_100 Column_101 Column_102 Column_103 Column_104 Column_105 Column_106 Column_107 Column_108 Column_109 Column_110 Column_111 Column_112 Column_113 Column_114 Column_115 Column_116 Column_117 Column_118 Column_119 Column_120 Column_121 Column_122 Column_123 Column_124 Column_125 Column_126 Column_127 Column_128 Column_129 Column_130 Column_131 Column_132 Column_133 Column_134 Column_135 Column_136 Column_137 Column_138 Column_139 Column_140 Column_141 Column_142 Column_143 Column_144 Column_145 Column_146 Column_147 Column_148 Column_149 Column_150 Column_151 Column_152 Column_153 Column_154 Column_155 Column_156 Column_157 Column_158 Column_159 Column_160 Column_161 Column_162 Column_163 Column_164 Column_165 Column_166 Column_167 Column_168 Column_169 Column_170 Column_171 Column_172 Column_173 Column_174 Column_175 Column_176 Column_177 Column_178 Column_179 Column_180 Column_181 Column_182 Column_183 Column_184 Column_185 Column_186 Column_187 Column_188 Column_189 Column_190 Column_191 Column_192 Column_193 Column_194 Column_195 Column_196 Column_197 Column_198 Column_199 Column_200 Column_201 Column_202 Column_203 Column_204 Column_205 Column_206 Column_207 Column_208 Column_209 Column_210 Column_211 Column_212 Column_213 Column_214 Column_215 Column_216 Column_217 Column_218 Column_219 Column_220 Column_221 Column_222 Column_223 Column_224 Column_225 Column_226 Column_227 Column_228 Column_229 Column_230 Column_231 Column_232 Column_233 Column_234 Column_235 Column_236 Column_237 Column_238 Column_239 Column_240 Column_241 Column_242 Column_243 Column_244 Column_245 Column_246 Column_247 Column_248 Column_249 Column_250 Column_251 Column_252 Column_253 Column_254 Column_255 Column_256 Column_257 Column_258 Column_259 Column_260 Column_261 Column_262 Column_263 Column_264 Column_265 Column_266 Column_267 Column_268 Column_269 Column_270 Column_271 Column_272 Column_273 Column_274 Column_275 Column_276 Column_277 Column_278 Column_279 Column_280 Column_281 Column_282 Column_283 Column_284 Column_285 Column_286 Column_287 Column_288 Column_289 Column_290 Column_291 Column_292 Column_293 Column_294 Column_295 Column_296 Column_297 Column_298 Column_299 Column_300 Column_301 Column_302 Column_303 Column_304 Column_305 Column_306 Column_307 Column_308 Column_309 Column_310 Column_311 Column_312 Column_313 Column_314 Column_315 Column_316 Column_317 Column_318 Column_319 Column_320 Column_321 Column_322 Column_323 Column_324 Column_325 Column_326 Column_327 Column_328 Column_329 Column_330 Column_331 Column_332 Column_333 Column_334 Column_335 Column_336 Column_337 Column_338 Column_339 Column_340 Column_341 Column_342 Column_343 Column_344 Column_345 Column_346 Column_347 Column_348 Column_349 Column_350 Column_351 Column_352 Column_353 Column_354 Column_355 Column_356 Column_357 Column_358 Column_359 Column_360 Column_361 Column_362 Column_363 Column_364 Column_365 Column_366 Column_367 Column_368 Column_369 Column_370 Column_371 Column_372 Column_373 Column_374 Column_375 Column_376 Column_377 Column_378 Column_379 Column_380 Column_381 Column_382 Column_383 Column_384 Column_385 Column_386 Column_387 Column_388 Column_389 Column_390 Column_391 Column_392 Column_393 Column_394 Column_395 Column_396 Column_397 Column_398 Column_399 Column_400 Column_401 Column_402 Column_403 Column_404 Column_405 Column_406 Column_407 Column_408 Column_409 Column_410 Column_411 Column_412 Column_413 Column_414 Column_415 Column_416 Column_417 Column_418 Column_419 Column_420 Column_421 Column_422 Column_423 Column_424 Column_425 Column_426 Column_427 Column_428 Column_429 Column_430 Column_431 Column_432 Column_433 Column_434 Column_435 Column_436 Column_437 Column_438 Column_439 Column_440 Column_441 Column_442 Column_443 Column_444 Column_445 Column_446 Column_447 Column_448 Column_449 Column_450 Column_451 Column_452 Column_453 Column_454 Column_455 Column_456 Column_457 Column_458 Column_459 Column_460 Column_461 Column_462 Column_463 Column_464 Column_465 Column_466 Column_467 Column_468 Column_469 Column_470 Column_471 Column_472 Column_473 Column_474 Column_475 Column_476 Column_477 Column_478 Column_479 Column_480 Column_481 Column_482 Column_483 Column_484 Column_485 Column_486 Column_487 Column_488 Column_489 Column_490 Column_491 Column_492 Column_493 Column_494 Column_495 Column_496 Column_497 Column_498 Column_499 Column_500 Column_501 Column_502 Column_503 Column_504 Column_505 Column_506 Column_507 Column_508 Column_509 Column_510 Column_511 Column_512 Column_513 Column_514 Column_515 Column_516 Column_517 Column_518 Column_519 Column_520 Column_521 Column_522 Column_523 Column_524 Column_525 Column_526 Column_527 Column_528 Column_529 Column_530 Column_531 Column_532 Column_533 Column_534 Column_535 Column_536 Column_537 Column_538 Column_539 Column_540 Column_541 Column_542 Column_543 Column_544 Column_545 Column_546 Column_547 Column_548 Column_549 Column_550 Column_551 Column_552 Column_553 Column_554 Column_555 Column_556 Column_557 Column_558 Column_559 Column_560 Column_561 Column_562 Column_563 Column_564 Column_565 Column_566 Column_567 Column_568 Column_569 Column_570 Column_571 Column_572 Column_573 Column_574 Column_575 Column_576 Column_577 Column_578 Column_579 Column_580 Column_581 Column_582 Column_583 Column_584 Column_585 Column_586 Column_587 Column_588 Column_589 Column_590 Column_591 Column_592 Column_593 Column_594 Column_595 Column_596 Column_597 Column_598 Column_599 Column_600 Column_601 Column_602 Column_603 Column_604 Column_605 Column_606 Column_607 Column_608 Column_609 Column_610 Column_611 Column_612 Column_613 Column_614 Column_615 Column_616 Column_617 Column_618 Column_619 Column_620 Column_621 Column_622 Column_623 Column_624 Column_625 Column_626 Column_627 Column_628 Column_629 Column_630 Column_631 Column_632 Column_633 Column_634 Column_635 Column_636 Column_637 Column_638 Column_639 Column_640 Column_641 Column_642 Column_643 Column_644 Column_645 Column_646 Column_647 Column_648 Column_649 Column_650 Column_651 Column_652 Column_653 Column_654 Column_655 Column_656 Column_657 Column_658 Column_659 Column_660 Column_661 Column_662 Column_663 Column_664 Column_665 Column_666 Column_667 Column_668 Column_669 Column_670 Column_671 Column_672 Column_673 Column_674 Column_675 Column_676 Column_677 Column_678 Column_679 Column_680 Column_681 Column_682 Column_683 Column_684 Column_685 Column_686 Column_687 Column_688 Column_689 Column_690 Column_691 Column_692 Column_693 Column_694 Column_695 Column_696 Column_697 Column_698 Column_699 Column_700 Column_701 Column_702 Column_703 Column_704 Column_705 Column_706 Column_707 Column_708 Column_709 Column_710 Column_711 Column_712 Column_713 Column_714 Column_715 Column_716 Column_717 Column_718 Column_719 Column_720 Column_721 Column_722 Column_723 Column_724 Column_725 Column_726 Column_727 Column_728 Column_729 Column_730 Column_731 Column_732 Column_733 Column_734 Column_735 Column_736 Column_737 Column_738 Column_739 Column_740 Column_741 Column_742 Column_743 Column_744 Column_745 Column_746 Column_747 Column_748 Column_749 Column_750 Column_751 Column_752 Column_753 Column_754 Column_755 Column_756 Column_757 Column_758 Column_759 Column_760 Column_761 Column_762 Column_763 Column_764 Column_765 Column_766 Column_767
feature_infos=[-0.19715307652950287:1.0857712030410767] [-0.45817932486534119:0.84763938188552856] [-0.75638175010681152:0.81668901443481445] [-1.1640053987503052:0.3963247537612915] [-0.34253111481666565:1.2513412237167358] [-0.73790842294692993:0.80326545238494873] [-0.8603290319442749:0.40548935532569885] [-1.1865447759628296:0.24390079081058502] [-1.494759202003479:-0.025980690494179726] [-1.129548192024231:0.87150561809539795] [-1.3417775630950928:1.4879171848297119] [-1.2138069868087769:0.54110342264175415] [-0.38975471258163452:1.0906169414520264] [-0.66657507419586182:0.74881482124328613] [-1.7402236461639404:0.30548405647277832] [-0.50881993770599365:1.2761183977127075] [-0.65660417079925537:0.83945208787918091] [-0.40031850337982178:1.4127213954925537] [-0.54720598459243774:0.98936736583709717] [-0.78238981962203979:0.97773563861846924] [-0.91802430152893066:0.71270936727523804] [-0.95866191387176514:0.26109287142753601] [-0.21543833613395691:1.2833966016769409] [-0.76743638515472412:1.2995916604995728] [-0.96685397624969482:0.38030102849006653] [-0.63388985395431519:1.0402278900146484] [-0.4819188117980957:1.273712158203125] [-0.53140610456466675:0.8596489429473877] [-0.42786851525306702:0.96607482433319092] [-1.3417251110076904:0.75338274240493774] [-0.65174347162246704:0.8839079737663269] [-1.0799462795257568:0.24546888470649719] [-0.34509110450744629:1.3362134695053101] [-0.71783256530761719:0.52603393793106079] [-0.88522255420684814:0.65417110919952393] [-0.80430823564529419:0.56486016511917114] [-1.0695116519927979:0.93991416692733765] [-0.93060207366943359:0.70915895700454712] [-1.2568507194519043:0.40582922101020813] [-0.81934517621994019:0.46217319369316101] [-1.1778135299682617:0.24818971753120422] [-1.4112917184829712:0.048838090151548386] [-0.4489988386631012:1.3619942665100098] [-0.11350256949663162:1.3497109413146973] [-0.95721900463104248:0.77903395891189575] [-0.48602598905563354:1.4691941738128662] [-0.10112233459949493:1.215428352355957] [-1.0226387977600098:0.2102014422416687] [-0.15766282379627228:0.96461379528045654] [-0.04430413618683815:1.0733932256698608] [-0.75367361307144165:0.51273202896118164] [-1.2603621482849121:0.41821062564849854] [-0.39854028820991516:1.1834715604782104] [-1.1609753370285034:0.43493348360061646] [-0.1097753494977951:1.1611306667327881] [-0.13821570575237274:1.335415244102478] [-0.80807733535766602:0.63496255874633789] [-1.200497031211853:0.42434567213058472] [-0.35056930780410767:1.5751177072525024] [-0.46283182501792908:0.93110752105712891] [-0.7524610161781311:0.61806190013885498] [-0.4759080708026886:1.1111632585525513] [-1.5034373998641968:0.14953139424324036] [-0.25330042839050293:1.1262449026107788] [-0.9924008846282959:0.22387607395648956] [-0.88669842481613159:0.58852064609527588] [-1.2623637914657593:0.77443665266036987] [-0.7656751275062561:1.067747950553894] [-0.4516930878162384:0.67566567659378052] [-0.8526921272277832:1.19976806640625] [-0.63887292146682739:0.8661695122718811] [-1.3252657651901245:0.15254849195480347] [-0.17986083030700684:1.5139795541763306] [-1.5184159278869629:0.37919008731842041] [-0.49985861778259277:1.4148038625717163] [-0.74732720851898193:1.1766719818115234] [-0.60201120376586914:0.85897302627563477] [-0.10027980804443359:1.5009607076644897] [-0.12644568085670471:1.199018120765686] [-0.20675401389598846:1.036157488822937] [-1.1147522926330566:-0.0013067374238744378] [-0.33489534258842468:1.2711610794067383] [-1.1983212232589722:0.67491137981414795] [-0.018566407263278961:1.3844788074493408] [-0.93010836839675903:0.57961189746856689] [-0.37834832072257996:1.0845838785171509] [-1.4956929683685303:0.21646842360496521] [-1.4459160566329956:0.30297946929931641] [-0.8051336407661438:0.58959048986434937] [-0.45518103241920471:0.81807976961135864] [-1.0775570869445801:0.74965643882751465] [-1.2107865810394287:0.82025003433227539] [-0.71277898550033569:0.70127707719802856] [-0.11939696967601776:1.2976324558258057] [-0.90351074934005737:0.9184563159942627] [-0.23157365620136261:1.0713551044464111] [-1.0672867298126221:0.46289864182472229] [-0.31612557172775269:0.95772761106491089] [-0.51356208324432373:1.0467069149017334] [-0.68185025453567505:1.1525378227233887] [-1.0251054763793945:0.68373650312423706] [-0.48865583539009094:1.482276439666748] [-1.033621072769165:0.58188283443450928] [-0.51837456226348877:0.9138028621673584] [-0.0071843364275991917:1.1902533769607544] [-0.19799107313156128:1.1250331401824951] [-0.99203324317932129:1.0886832475662231] [-0.4149116575717926:1.1057387590408325] [-0.96880388259887695:0.836048424243927] [-0.62871855497360229:0.73860663175582886] [-1.5722892284393311:0.30393776297569275] [-1.1623868942260742:0.75360524654388428] [-1.4485170841217041:0.42259156703948975] [-1.0004115104675293:0.31572312116622925] [-0.99178415536880493:0.63660413026809692] [-0.89566493034362793:0.17928509414196014] [-0.45152750611305237:1.2033395767211914] [-0.84598010778427124:0.71350300312042236] [0.078813612461090088:1.0419414043426514] [-1.1912692785263062:0.95795190334320068] [-1.2945362329483032:0.51542371511459351] [-1.2101962566375732:0.57578980922698975] [-0.59024763107299805:1.0625103712081909] [0.24957090616226196:1.2229852676391602] [-0.51427680253982544:0.87482070922851562] [-0.46347376704216003:1.2258899211883545] [-0.71197915077209473:0.51442974805831909] [-0.80078661441802979:0.75318849086761475] [-0.88335675001144409:0.78212976455688477] [-0.4215923547744751:1.0955837965011597] [-0.31542044878005981:1.368960976600647] [-1.0702624320983887:0.78507190942764282] [-0.53154647350311279:1.28758704662323] [-0.16997997462749481:1.3592523336410522] [-1.5015472173690796:0.47089067101478577] [-0.081001847982406616:1.626819372177124] [-0.11305303126573563:1.5081734657287598] [-0.87072086334228516:0.59826940298080444] [-0.81778961420059204:0.32253730297088623] [-0.87879598140716553:1.1750936508178711] [-0.99845701456069946:1.1046249866485596] [-0.6741822361946106:1.0202442407608032] [-1.1360172033309937:0.12791964411735535] [-1.0532598495483398:1.0006551742553711] [-0.41128134727478027:1.1492799520492554] [-1.0856765508651733:0.28277289867401123] [-0.17706386744976044:1.4169038534164429] [-1.6253970861434937:0.55079859495162964] [-0.87006354331970215:0.81400060653686523] [-0.31668862700462341:0.85690957307815552] [-0.20282648503780365:1.2044677734375] [-0.83629661798477173:0.68181651830673218] [-1.0507409572601318:0.82243227958679199] [-0.84787553548812866:0.50576257705688477] [-0.84478670358657837:1.3753803968429565] [-1.1224365234375:0.70035886764526367] [0.082858547568321228:1.6829144954681396] [-1.0783308744430542:0.73422461748123169] [-1.2613242864608765:0.086894690990447998] [0.10521526634693146:2.1874310970306396] [-0.51870810985565186:1.4437750577926636] [-1.6668188571929932:-0.10438842326402664] [-0.8335120677947998:0.99313032627105713] [-0.99552959203720093:0.65862792730331421] [-0.24852043390274048:0.93019402027130127] [-0.25292012095451355:1.0390461683273315] [-0.45607438683509827:0.98163813352584839] [0.062628284096717834:1.1335041522979736] [-0.58167576789855957:1.0616689920425415] [-0.54874980449676514:0.89937782287597656] [-0.58962279558181763:1.0027320384979248] [-0.53021115064620972:0.76896989345550537] [-1.3745890855789185:0.51733928918838501] [-0.61810725927352905:0.60444128513336182] [-1.1039460897445679:0.67515277862548828] [-0.61480063199996948:1.2684463262557983] [-0.24903987348079681:0.79966175556182861] [-0.80337256193161011:0.92375421524047852] [-0.31445929408073425:1.0567033290863037] [-0.66851198673248291:0.9688948392868042] [-1.2986358404159546:0.14764252305030823] [-0.14264000952243805:1.2763588428497314] [-1.3023605346679688:0.59429073333740234] [-0.64188998937606812:1.0774893760681152] [-1.0131072998046875:0.58120566606521606] [-1.3736220598220825:0.35942026972770691] [-0.85647457838058472:0.63333368301391602] [-0.92288666963577271:0.72097486257553101] [-1.1066387891769409:0.46027618646621704] [-0.88954019546508789:0.54297769069671631] [-0.034216098487377167:1.3018522262573242] [-0.80466580390930176:0.7050672173500061] [-1.0279090404510498:0.79194676876068115] [-1.6266573667526245:0.14977601170539856] [-0.41852408647537231:1.036739706993103] [-0.32229092717170715:1.3690035343170166] [-0.45205163955688477:0.8291357159614563] [-0.86433255672454834:0.93483459949493408] [-0.80795449018478394:0.72886139154434204] [-0.41898742318153381:0.94282609224319458] [-1.3426880836486816:0.72080510854721069] [-0.65425819158554077:1.0844382047653198] [-1.1031516790390015:0.88753366470336914] [-0.96542471647262573:0.2186645120382309] [-0.6161002516746521:0.78667402267456055] [-0.94151759147644043:0.59318530559539795] [-0.23411992192268372:0.97148007154464722] [-0.99051129817962646:0.75887787342071533] [-1.0755636692047119:0.8756900429725647] [-1.2266900539398193:0.068065188825130463] [-1.1654300689697266:0.7353777289390564] [-0.59152746200561523:0.93756818771362305] [-0.18789702653884888:1.3567278385162354] [-1.1694769859313965:0.46077811717987061] [0.53070986270904541:2.1171219348907471] [-0.93265265226364136:1.1802304983139038] [-0.22512277960777283:1.0897210836410522] [-1.5252652168273926:0.79089415073394775] [-1.5495386123657227:-0.23406016826629639] [-1.0020288228988647:0.49389049410820007] [-0.4434979259967804:1.0221891403198242] [-1.1547473669052124:0.06957632303237915] [-0.2334272563457489:1.5172604322433472] [-0.49325653910636902:1.0753432512283325] [-1.6372328996658325:0.18693690001964569] [-0.32384178042411804:0.97495424747467041] [-1.0871081352233887:1.1355865001678467] [-0.75146281719207764:0.82544761896133423] [-1.243350625038147:0.78200376033782959] [-0.55923092365264893:0.92011302709579468] [-0.57864117622375488:1.3195415735244751] [-0.98839378356933594:0.50334489345550537] [-0.3991888165473938:0.9356265664100647] [-0.27044132351875305:1.2356493473052979] [-0.68486136198043823:0.81592708826065063] [-1.3667384386062622:0.34370496869087219] [-1.9955446720123291:0.48164144158363342] [-1.2484660148620605:0.23602671921253204] [-0.55688512325286865:1.4507827758789062] [-1.2502541542053223:1.3153760433197021] [-1.041365385055542:0.47048106789588928] [-0.94138079881668091:0.63779747486114502] [-0.94471681118011475:0.6383787989616394] [-0.0083582838997244835:1.5986278057098389] [-0.8419572114944458:0.69980818033218384] [-0.94526851177215576:0.89004456996917725] [-0.47150412201881409:0.63425934314727783] [-0.38931035995483398:0.51845163106918335] [-1.4137046337127686:0.1329585462808609] [-0.80490398406982422:0.57627081871032715] [-1.7153034210205078:0.40150141716003418] [-1.1888065338134766:0.20289252698421478] [-0.57913398742675781:0.58481204509735107] [-1.5944631099700928:-0.063671015202999115] [-0.57196331024169922:1.0615109205245972] [-1.3249713182449341:0.15850327908992767] [-0.47294044494628906:0.46296322345733643] [-0.67341160774230957:0.88077455759048462] [-0.59862053394317627:1.245911717414856] [-0.5791163444519043:1.646100640296936] [-0.35523286461830139:1.0693529844284058] [-1.1187608242034912:0.0091176657006144524] [-0.52875590324401855:1.5709832906723022] [-0.10937035083770752:1.6791055202484131] [-1.2140835523605347:0.30114507675170898] [-0.96981167793273926:0.44306588172912598] [-1.2687830924987793:0.16099770367145538] [-0.65617150068283081:0.57581841945648193] [-1.8941261768341064:0.61740857362747192] [-1.1975709199905396:1.4564914703369141] [-1.0147184133529663:0.2591610848903656] [-0.74760246276855469:0.98832476139068604] [-0.60506898164749146:0.8617093563079834] [-1.0980075597763062:0.1438540518283844] [-0.22201031446456909:1.0473225116729736] [-0.82630413770675659:0.62033760547637939] [-1.266811728477478:1.1200478076934814] [-0.51871734857559204:1.1127159595489502] [-0.56398075819015503:0.77137839794158936] [-1.0268045663833618:0.78491902351379395] [-0.96641474962234497:1.1650841236114502] [-0.40450581908226013:1.3575654029846191] [-0.8627471923828125:0.58503842353820801] [-1.0550596714019775:1.1546558141708374] [-0.0025207009166479111:2.3684697151184082] [-0.68945252895355225:1.3886644840240479] [-1.0592575073242188:0.82453852891921997] [-1.0776152610778809:0.83946496248245239] [-1.5115004777908325:0.25573828816413879] [-0.33507174253463745:0.92332828044891357] [-1.5061957836151123:0.54243683815002441] [-0.74792695045471191:0.4267602264881134] [-0.39603787660598755:0.99042278528213501] [-0.79570913314819336:0.87757104635238647] [-1.0715607404708862:1.6102699041366577] [-1.2174389362335205:0.45398175716400146] [-0.78833025693893433:0.65859460830688477] [-0.037886444479227066:0.95483952760696411] [-2.0436475276947021:0.58278161287307739] [-1.0368759632110596:0.79857116937637329] [-0.76861357688903809:0.55309748649597168] [-1.2087199687957764:0.32463496923446655] [0.17100381851196289:1.7866125106811523] [-1.7190204858779907:0.66759312152862549] [-0.38748937845230103:1.5907816886901855] [-0.76549327373504639:1.1799200773239136] [-1.2990982532501221:0.36956974864006042] [-0.71962803602218628:0.80678725242614746] [-0.20268256962299347:0.92619770765304565] [-0.66657912731170654:0.79833203554153442] [-1.6385908126831055:-0.22632445394992828] [-0.65587478876113892:0.76961100101470947] [-0.48588705062866211:0.92878872156143188] [-0.43927833437919617:0.99414312839508057] [-0.80422419309616089:0.9455031156539917] [-1.1269174814224243:0.075909599661827087] [-1.141076922416687:0.43834280967712402] [-0.84437566995620728:0.55623281002044678] [-0.3338722288608551:1.4922354221343994] [-0.3324933648109436:1.1412385702133179] [-1.4495090246200562:0.1871679276227951] [-1.5951359272003174:0.27319559454917908] [-0.63395124673843384:1.1776131391525269] [-0.63979226350784302:1.1327915191650391] [-0.88175427913665771:1.0027846097946167] [0.02038305439054966:1.2285370826721191] [-1.0044777393341064:0.49980175495147705] [-0.55328059196472168:0.71124547719955444] [-0.27260854840278625:1.4925371408462524] [-0.43306758999824524:0.58624839782714844] [-1.1428320407867432:1.5868954658508301] [-0.82367289066314697:0.78507328033447266] [-1.1442079544067383:0.40597471594810486] [-1.698707103729248:0.24179826676845551] [-0.71114736795425415:0.18989774584770203] [-1.1731884479522705:0.36208373308181763] [-0.48534992337226868:0.80547583103179932] [-0.41231939196586609:0.95973449945449829] [-0.68474096059799194:0.80485743284225464] [-0.62431681156158447:0.52313834428787231] [-1.1347736120223999:0.87459492683410645] [-0.7431522011756897:1.5333638191223145] [-0.52280104160308838:0.81608200073242188] [-0.93850475549697876:1.6848257780075073] [-0.46589836478233337:0.7665632963180542] [-0.82445192337036133:0.4365336000919342] [-0.56588107347488403:0.58797967433929443] [-0.70716255903244019:0.79226529598236084] [-1.0386617183685303:0.96679681539535522] [-1.5270555019378662:-0.16997499763965607] [-0.43484136462211609:1.1276134252548218] [-0.74273967742919922:0.36911043524742126] [-1.3698084354400635:0.42888370156288147] [-0.98340988159179688:0.21117392182350159] [-1.4096798896789551:0.4342673122882843] [-1.7333062887191772:0.036551326513290405] [-1.0419340133666992:0.48669236898422241] [-0.085828088223934174:1.1524640321731567] [-0.71689993143081665:0.59325003623962402] [-0.94525164365768433:1.0416067838668823] [-0.69617271423339844:1.5416544675827026] [-0.87298941612243652:0.55687993764877319] [-2.0077846050262451:0.62997621297836304] [-1.384859561920166:1.1138665676116943] [-1.1818290948867798:0.59928041696548462] [-1.1254453659057617:0.56469768285751343] [-0.74564021825790405:0.81751507520675659] [-0.78446012735366821:1.1397702693939209] [-0.75576961040496826:0.57034528255462646] [-0.69087564945220947:1.0411050319671631] [-1.7185015678405762:0.41549801826477051] [-0.27382966876029968:0.94709551334381104] [-1.342964768409729:-0.2402251660823822] [-0.4265974760055542:1.3134257793426514] [-1.4959254264831543:0.4585500955581665] [-0.88101619482040405:0.66541117429733276] [-1.2015049457550049:-0.026865851134061813] [-0.8807990550994873:0.58119875192642212] [-0.16934444010257721:1.1834573745727539] [-0.18986387550830841:1.4714889526367188] [-1.2511379718780518:0.75190943479537964] [-1.5816227197647095:0.26263546943664551] [-0.98411804437637329:0.44889736175537109] [-0.50835037231445312:1.0676910877227783] [-0.79470646381378174:0.42626500129699707] [-1.2967381477355957:0.35240691900253296] [-0.6478121280670166:1.1384726762771606] [-0.83435440063476562:1.2720239162445068] [-1.1946314573287964:0.20324729382991791] [-0.94878309965133667:0.57476216554641724] [-0.84204572439193726:0.76662570238113403] [-1.2189919948577881:0.58261573314666748] [-0.55519956350326538:0.65910631418228149] [-0.87263727188110352:0.70243602991104126] [-0.58233827352523804:0.58672940731048584] [-0.91841006278991699:0.87608468532562256] [-0.49029949307441711:0.84978264570236206] [-0.395864337682724:1.3742498159408569] [-0.61787110567092896:0.68996638059616089] [-1.2376589775085449:0.5142320990562439] [-0.73485720157623291:1.5302700996398926] [-0.73714596033096313:1.0148169994354248] [-0.59176808595657349:0.87408447265625] [-1.3203952312469482:0.79166030883789062] [-1.0346713066101074:0.3889940083026886] [-1.1494501829147339:0.44534173607826233] [-0.98603743314743042:0.21154814958572388] [-1.034052848815918:0.53379935026168823] [-1.0419877767562866:0.11440110951662064] [-0.79824012517929077:0.6964532732963562] [-1.0704860687255859:1.1083006858825684] [-0.47419324517250061:0.91170603036880493] [-1.2051805257797241:0.2052062600851059] [-1.4395904541015625:0.97965824604034424] [-0.98942601680755615:0.9069058895111084] [-0.59472304582595825:0.90362352132797241] [-0.24424104392528534:1.5041950941085815] [-0.46166470646858215:0.82964998483657837] [-0.58043926954269409:1.0171025991439819] [-0.96623283624649048:1.1951369047164917] [-0.87171846628189087:0.65995097160339355] [-0.64225387573242188:1.4192867279052734] [-0.068374179303646088:1.2397832870483398] [-0.50602376461029053:0.66327476501464844] [-0.45228981971740723:1.2595592737197876] [-0.55572938919067383:1.4674705266952515] [-1.7272461652755737:0.61209940910339355] [-1.1643450260162354:1.191270112991333] [-1.7853794097900391:0.44092196226119995] [-0.33867168426513672:1.2162761688232422] [-0.28351914882659912:1.1454712152481079] [-1.2561218738555908:0.57910037040710449] [-0.2162318080663681:1.3169995546340942] [-0.84430241584777832:0.79130291938781738] [-0.8898470401763916:0.52685278654098511] [-0.94734019041061401:0.76665526628494263] [-0.88255095481872559:0.87133431434631348] [-0.72400587797164917:0.67899090051651001] [-0.091809600591659546:1.1032838821411133] [-1.2007242441177368:0.026915302500128746] [-1.1183816194534302:0.30451381206512451] [-0.87294512987136841:1.081620454788208] [-0.12540595233440399:1.3803814649581909] [-0.61833864450454712:1.018586277961731] [-1.3148490190505981:0.45975813269615173] [-0.73235088586807251:0.59558051824569702] [-0.48584532737731934:1.0330905914306641] [-1.0101096630096436:0.29899969696998596] [-0.85055190324783325:1.0398597717285156] [-0.64123731851577759:0.6456226110458374] [-1.0236349105834961:1.6897296905517578] [-0.75795376300811768:1.1066868305206299] [-1.4009796380996704:0.19510848820209503] [-0.43451371788978577:1.336443305015564] [-0.088210679590702057:1.5215960741043091] [-1.6878954172134399:-0.16337493062019348] [-1.0078141689300537:0.67004197835922241] [-0.88577622175216675:1.0067915916442871] [-1.1965994834899902:0.21702533960342407] [-0.57033753395080566:0.88564187288284302] [-0.87747007608413696:0.50169217586517334] [-0.98442447185516357:0.39108964800834656] [-1.011796236038208:0.74512308835983276] [-0.86628466844558716:0.92016375064849854] [-1.4140708446502686:0.54973572492599487] [-1.3236080408096313:0.15187419950962067] [-1.3185509443283081:1.2184634208679199] [-0.46883034706115723:0.97416567802429199] [-0.18847006559371948:0.99380892515182495] [-1.1365174055099487:0.16834482550621033] [-0.83796769380569458:0.82933837175369263] [-0.77088981866836548:1.4664993286132812] [-0.75593066215515137:0.84878009557723999] [-1.6216024160385132:-0.10485946387052536] [-1.1999185085296631:0.56529450416564941] [-1.3176263570785522:0.77817511558532715] [-0.91171789169311523:0.71128213405609131] [-0.78841251134872437:0.57905733585357666] [-1.1844708919525146:-0.18678818643093109] [-0.87638330459594727:0.36360225081443787] [-0.77596902847290039:0.45678958296775818] [-0.45294928550720215:1.0407476425170898] [-0.71305400133132935:0.94768953323364258] [-0.99715167284011841:0.34507289528846741] [-1.4950461387634277:0.79482424259185791] [-0.92846721410751343:0.64296185970306396] [-0.96502029895782471:0.56488567590713501] [-0.99875169992446899:0.70344036817550659] [-0.60555320978164673:0.89679241180419922] [-0.58452302217483521:0.94810378551483154] [-0.59184253215789795:0.6892048716545105] [-0.6450732946395874:1.9155493974685669] [-0.96334564685821533:0.67943918704986572] [-0.37239754199981689:0.90442961454391479] [-0.5882878303527832:0.70480507612228394] [-1.7796576023101807:-0.0080341044813394547] [-0.80393022298812866:1.1110806465148926] [-0.63976716995239258:0.55185806751251221] [-1.1355667114257812:0.40987712144851685] [0.033161893486976624:1.958580493927002] [-0.52935844659805298:0.83043849468231201] [-0.21943128108978271:1.1875169277191162] [-1.2160192728042603:0.0040459814481437206] [-1.257481575012207:0.44362863898277283] [-0.30279752612113953:1.3625717163085938] [-0.15994013845920563:1.021358847618103] [-1.6503545045852661:0.38253509998321533] [-0.18808764219284058:1.3065259456634521] [-0.98600006103515625:0.52839428186416626] [-0.67059111595153809:0.78539341688156128] [-1.3015305995941162:0.38476166129112244] [-0.24013257026672363:1.2089707851409912] [-1.5599000453948975:0.82695627212524414] [-1.5922470092773438:0.13424627482891083] [-0.92490661144256592:0.84720301628112793] [-1.3521543741226196:0.19552116096019745] [-0.31882962584495544:1.3963838815689087] [0.26724383234977722:1.4192607402801514] [-1.026985764503479:0.20860984921455383] [-1.3536673784255981:0.093132585287094116] [-0.23274645209312439:1.1663492918014526] [-1.6198618412017822:0.63984471559524536] [-1.2160751819610596:0.3973667323589325] [-1.1030007600784302:0.59957307577133179] [-0.60832351446151733:1.5260496139526367] [-0.77572989463806152:0.8476441502571106] [-1.0020172595977783:0.99268251657485962] [-0.35352921485900879:0.83356136083602905] [-1.077522873878479:1.4089713096618652] [-0.93615680932998657:0.94918930530548096] [-1.1519603729248047:1.1630433797836304] [-0.45106044411659241:1.0459779500961304] [-1.2742021083831787:0.86237472295761108] [-0.44034266471862793:1.5794670581817627] [-1.4151396751403809:0.37129893898963928] [-1.1179776191711426:0.51899343729019165] [-0.87285643815994263:0.50383734703063965] [-1.1424300670623779:0.75621354579925537] [-0.81986045837402344:0.3512197732925415] [-1.1840791702270508:1.0473530292510986] [-1.3800896406173706:0.37946826219558716] [-1.1237194538116455:0.29693713784217834] [-0.78867769241333008:0.81811445951461792] [-0.27225875854492188:1.0364552736282349] [-0.53048080205917358:1.4180091619491577] [-1.7247778177261353:1.0378758907318115] [-0.66013878583908081:1.1593024730682373] [-1.8532088994979858:0.5125129222869873] [-0.0047742822207510471:1.124765157699585] [-0.27249392867088318:1.5217840671539307] [-0.68644797801971436:0.39883169531822205] [-0.65949702262878418:1.3814741373062134] [-1.0240310430526733:0.59812784194946289] [-1.2003414630889893:0.41692346334457397] [-1.1153414249420166:1.1489295959472656] [-0.90592700242996216:0.2904202938079834] [-1.0781954526901245:0.85132360458374023] [-0.50724095106124878:0.42465779185295105] [-0.99856394529342651:0.44371768832206726] [-0.53435766696929932:1.1445643901824951] [-1.242601752281189:-0.096981219947338104] [-0.63460433483123779:1.0543954372406006] [-0.90162515640258789:1.1187310218811035] [-0.4436928927898407:1.052473783493042] [-0.94704455137252808:0.40492060780525208] [-0.50464004278182983:1.2395005226135254] [-0.60123002529144287:0.79994118213653564] [-1.6879950761795044:0.60020238161087036] [-0.75119364261627197:1.3115785121917725] [-0.70043778419494629:1.1898337602615356] [-0.8403022289276123:0.62440335750579834] [-1.6292612552642822:0.09098690003156662] [-0.77638918161392212:0.79734653234481812] [-0.60086333751678467:1.1533166170120239] [-1.1376422643661499:0.17639742791652679] [-0.31449252367019653:1.1310172080993652] [-0.49349391460418701:1.3127903938293457] [-1.5720442533493042:0.34394338726997375] [-1.0078825950622559:0.2237052321434021] [-1.1243805885314941:0.46436798572540283] [0.13553041219711304:2.0667643547058105] [-0.7444460391998291:0.53279691934585571] [-1.0418789386749268:0.62512725591659546] [-0.069006301462650299:1.3285207748413086] [-0.074620582163333893:1.6990457773208618] [-0.88473588228225708:0.65001332759857178] [-0.65455859899520874:1.2627612352371216] [-0.80606669187545776:0.52024781703948975] [-1.2186156511306763:0.13661284744739532] [-1.2009857892990112:0.12368018180131912] [-1.3695502281188965:0.17331072688102722] [-1.3143385648727417:0.78856539726257324] [-1.1477882862091064:1.091080904006958] [-0.94443351030349731:0.40727460384368896] [-0.69012552499771118:0.60530269145965576] [-1.0296540260314941:1.1064633131027222] [-1.5205671787261963:0.83689743280410767] [-1.3013361692428589:1.0961172580718994] [-0.16679286956787109:0.96465849876403809] [-0.7973334789276123:0.93792122602462769] [-0.41045373678207397:1.0112526416778564] [-0.73795384168624878:0.75272035598754883] [-0.71183395385742188:1.4920464754104614] [0.28313204646110535:1.4601414203643799] [-1.2932661771774292:1.1798199415206909] [-0.49663013219833374:1.0661954879760742] [-1.4043900966644287:0.40724098682403564] [-0.76067543029785156:1.0836783647537231] [-0.91394680738449097:0.70805937051773071] [-0.49647894501686096:0.98704874515533447] [-2.040452241897583:0.35438022017478943] [-1.9097981452941895:-0.14657153189182281] [-1.4723901748657227:0.069159001111984253] [-1.0787423849105835:0.0546267069876194] [-1.1718730926513672:0.20741970837116241] [-0.80431872606277466:0.43798837065696716] [-1.1462560892105103:0.64143431186676025] [-0.68743932247161865:0.42574471235275269] [-0.43155530095100403:0.99879473447799683] [-0.77850872278213501:0.55333471298217773] [-0.72850888967514038:0.50876832008361816] [-0.16560752689838409:1.5922647714614868] [-0.17891506850719452:1.0058883428573608] [0.12130115926265717:1.6382895708084106] [-0.70375937223434448:0.83249282836914062] [-1.0396244525909424:1.2208559513092041] [-1.0159999132156372:0.423174649477005] [-0.53579908609390259:1.1877659559249878] [-1.4122262001037598:0.52336525917053223] [-0.99030959606170654:0.79415571689605713] [-0.4314466118812561:0.9553457498550415] [-1.0725305080413818:0.63485068082809448] [-0.4914054274559021:1.093096137046814] [-0.49511286616325378:0.97765886783599854] [-0.10809853672981262:1.8255926370620728] [-0.68062829971313477:0.96371370553970337] [-0.52754080295562744:1.1729558706283569] [-0.52760827541351318:0.8685067892074585] [-0.57368749380111694:1.0633028745651245] [-0.99632644653320312:0.48648983240127563] [-1.1140834093093872:0.40553930401802063] [-0.78260201215744019:0.66179358959197998] [0.023235488682985306:1.5507346391677856] [-0.28602814674377441:1.3884800672531128] [-0.53235816955566406:1.1080076694488525] [-1.4093097448348999:0.12024161219596863] [-0.60937720537185669:0.96750575304031372] [-0.45825129747390747:1.5691704750061035] [-0.79565572738647461:0.92660218477249146] [-1.3267953395843506:-0.014210454188287258] [-0.036947522312402725:2.1896047592163086] [-0.43358880281448364:0.91209632158279419] [-0.95267701148986816:1.036623477935791] [-0.25259679555892944:1.5914710760116577] [-0.58573901653289795:1.4436757564544678] [-0.58759188652038574:0.66093003749847412] [-1.0055643320083618:0.69332367181777954] [-0.79191702604293823:0.53569304943084717] [-0.6375764012336731:0.74681967496871948] [-1.3006249666213989:0.26335132122039795] [-1.3645250797271729:0.55912989377975464] [-0.73441797494888306:0.43258428573608398] [-0.67711925506591797:1.1148231029510498] [-0.15931764245033264:1.8258250951766968] [-1.3225288391113281:1.1063525676727295] [-0.58877259492874146:0.85252457857131958] [-0.67853415012359619:0.89650571346282959] [-0.67861396074295044:0.40930965542793274] [-1.0147371292114258:1.6611932516098022] [-0.22505836188793182:1.5416837930679321] [-0.93392395973205566:0.31984752416610718] [-0.95772618055343628:0.76665520668029785] [-0.72794449329376221:0.75694155693054199] [-1.5399034023284912:0.052880693227052689] [-1.1923174858093262:0.33955886960029602] [-1.2659190893173218:0.34021934866905212] [-1.7104629278182983:-0.12216024100780487] [-1.4534175395965576:0.06604207307100296] [0.04168098047375679:1.5162570476531982] [-0.46846795082092285:1.4761795997619629] [-0.4229452908039093:1.7984985113143921] [-0.5250512957572937:0.9387362003326416] [-0.28236326575279236:1.2356950044631958] [-1.2744454145431519:0.46341332793235779] [-0.79388397932052612:0.62264561653137207] [-0.90276753902435303:1.2584242820739746] [-0.77188754081726074:0.84415465593338013] [-0.23270401358604431:1.4797899723052979] [-1.1186500787734985:0.10666884481906891] [-1.1285065412521362:0.77943825721740723] [-0.61050546169281006:1.1794381141662598] [-1.0203889608383179:0.51736116409301758] [-1.3515396118164062:-0.25322732329368591] [-1.1587523221969604:0.37215700745582581] [-0.87677401304244995:0.35524237155914307] [-0.58429443836212158:1.2255709171295166] [-0.32902729511260986:1.8907309770584106] [-1.0344215631484985:0.8858686089515686] [-0.60616493225097656:0.62757068872451782] [-0.28334006667137146:1.9495522975921631] [-1.2242666482925415:1.0091021060943604] [-0.49865159392356873:1.3854060173034668] [-1.0875123739242554:0.4978850781917572] [-0.36307623982429504:0.77280563116073608] [-0.69792968034744263:1.5007491111755371] [-0.33325275778770447:1.4572088718414307] [-0.33475220203399658:0.95588600635528564] [-0.5574195384979248:0.85007673501968384] [-1.2246888875961304:0.67912912368774414] [-0.60961836576461792:0.91894590854644775] [-1.0908017158508301:0.94865936040878296] [-0.19521322846412659:2.2023172378540039] [-1.7471908330917358:0.53492724895477295] [-0.083652354776859283:2.1352050304412842] [-0.82031244039535522:1.1010831594467163] [-0.25424346327781677:0.96082913875579834] [-1.1349798440933228:0.58242803812026978] [-1.5099247694015503:0.54633647203445435] [-0.99698096513748169:0.18975432217121124] [-0.070202909409999847:1.9062435626983643] [-1.1962358951568604:0.82577663660049438] [-0.74907559156417847:1.1678931713104248] [-0.59580045938491821:0.76013630628585815] [-1.8445839881896973:0.25404733419418335] [-1.0746890306472778:0.61895430088043213] [-0.34123411774635315:1.0378977060317993] [-1.2055432796478271:0.39448156952857971] [-0.62654650211334229:1.0701125860214233] [-0.89267289638519287:0.7627444863319397] [-0.73558622598648071:0.69515776634216309] [-0.76104152202606201:0.5869256854057312] [-0.75727540254592896:1.575613260269165] [-0.86021566390991211:0.37181386351585388] [-0.39616364240646362:1.4794381856918335] [-0.96518683433532715:0.29721039533615112] [-0.86617445945739746:0.6755179762840271] [-0.90596407651901245:0.83549249172210693] [-0.82357078790664673:0.72565031051635742] [-0.47563201189041138:1.0103057622909546] [-2.1192991733551025:0.50446164608001709] [-0.9481048583984375:1.5893998146057129] [-0.75098717212677002:0.35500878095626831] [-1.2235090732574463:0.2324516773223877] [-1.0083889961242676:0.64008647203445435] [-0.60653096437454224:1.3227047920227051] [-1.3799400329589844:0.97888374328613281] [-1.5171538591384888:0.36426511406898499] [-0.86337363719940186:1.1311010122299194] [-0.84183114767074585:0.45224803686141968] [0.22762154042720795:2.1642026901245117] [-1.0319080352783203:0.26262658834457397] [-0.72719663381576538:0.88506895303726196] [-1.7566279172897339:0.22559899091720581] [-0.73030036687850952:1.1401774883270264] [-1.1294186115264893:0.71271383762359619] [-0.31314024329185486:1.4148780107498169] [-0.78749555349349976:0.9622986912727356] [-0.5917401909828186:1.0009979009628296] [-0.53905516862869263:0.79122322797775269] [-0.24450065195560455:1.1843833923339844] [-1.5981411933898926:0.9622606635093689] [-1.7353787422180176:0.70379447937011719] [-1.2487962245941162:0.12158989161252975] [-0.43484613299369812:1.713422417640686] [-0.74924600124359131:0.69856071472167969] [-0.62460070848464966:0.75465196371078491] [-0.91006380319595337:0.49372884631156921] [-0.68454891443252563:0.95295000076293945]
tree_sizes=2853 3030 3050 3042 3042 3037 3037 3048 3025 3041 3056 3044 3048 3050 3048 2965 3046 3050 3065 2782 2790 2950 3052 3047 3051 3053 2810 2461 3028 3047 2777 2522 3035 2866 2942 3058 3034 3033 2795 2855 2771 2970 3066 3060 3036 2772 2878 2626 2797 3073 2624 2438 3043 3034 2361 2539 2280 2335 1752 1582 1757 2159 1813 2359 2969 2275 2113 2536 3039 1754 3046 2878 1747 1927 2282 1573 2685 2629 1662 1731 2197 2445 1757 1665 1945 2277 3080 3055 1314 1838 2109 1574 2197 1912 1397 1027 2118 2192 3064 1494 1923 2344 3077 3072 1913 2196 1402 2191 2991 1584 2805 1656 2543 2513 2113 2120 1204 1145 2464 2881 2041 1489 2519 2255 1585 954 2093 2095 2455 2532 2195 1848 2470 1938 2259 3067 1832 1947 2029 1937 2469 2556 1142 970 1742 2653 1046 963 2016 1502 2089 1937 2721 1923 2286 2889 2113 2282 1931 2627 2362 2989 2095 1149 3076 2991 3009 2827 2918 2639 3081 2898 1930 2294 1494 1130 3061 2629 1582 1596 3067 2820 2117 2559 2647 2379 2812 2650 2906 2915 2706 2993 3074 3087 2193 3074 2122 1857 2392 2637 1585 1666 3077 3060 2563 2926 1842 1848 1290 3069 3005 2119 2830 2726 1757 2127 2119 2298 2025 2287 2824 1318 2108 1909 3084 2832 1149 1426 1865 2024 2761 2206 2854 2120 2394 2033 2554 2863 3092 3086 2662 2203 1855 1225 3071 2295 3056 3109 2049 1692 2741 3098 3096 2746 2743 3097 2220 2217 2234 2226 2047 1758 2574 2315 2737 2845 1671 1680 2941 2300 2669 2214 2939 2483 3127 2751 2644 1424 1336 1870 2475 2627 3093 3129 2498 2499 2144 2689 1960 2219 2025 1240 2745 2669 2850 3132 1950 2318 2134 2120 2116 2659 2474 2225 2136 2318 1852 2216 1781 2074 3089 2576 2755 2593 2824 1676 3135 2769 2125 2122 2209 3126 3124 2008 2952 3033 2490 2773 2954 3114 2489 2683 3142 3132 2935 2395 1700 2846 1492 1512 1508 1240 3115 2339 2291 2386 3045 2210 2574 2404 2752 2755 3053 2543 2306 1960 2419 1331 3141 2317 1749 1882 3040 3115 3059 1962 3143 3126 2230 1522 2613 2233 3128 2779 2663 2343 2767 2155 2772 2921 2758 2398 2492 2661 3145 1972 2473 1696 1594 2126 2685 1877 2409 2303 2141 2236 2943 2854 3117 2672 2751 2650 2328 2690 2406 2466 1689 1599 2849 1503 2314 2573 2847 2939 2036 2849 2507 2520 2778 1781 3079 2047 3137 1749 2742 2526 2137 2593 2203 2927 2678 2878 1862 1968 2478 3100 3123 2910 2327 2648 2860 1438 2137 1343 1613 1834 3142 2414 2235 3084 3140 2342 2316 2161 3016 2153 1656 2509 2291 2326 3117 3107 2185 3116 2299 2070 1797 3049 1586 2955 3103 2185 1689 2602 2601 2690 1787 1859 2048 2244 2545 2601 3132 3091 2058 3145 2174 2730 2054 1976 2858 3157 1879 2601 1979 2290 2871 1951 3092 2838 1969 2040 2865 2623 2404 1846 2605 1979 2291 2477 2236 1220 2687 2549 2769 2305 2123 2307 2908 3092 1443 1703 2777 2947 1428 3123 2418 3124 2671 2656 2790 3098 1217 1425 1496 2410 2391 3023 1764 1757 3093 3132 2598 2759 1978 2941 3022 2828 2928 3102 2324 2008 1963 1518 2683 2422 1783 1970 3100 2315 2953 3107 2063 2033 1993 3143 1874 2375 1344 2244 2339 2254 3129 1698 2399 1745 2462 2222 2211 985 3096 2968 1708 1701 2955 2250 1792 1719 1312 1529 2651

Tree=0
num_leaves=33
num_cat=0
split_feature=566 293 23 721 550 233 298 293 610 657 340 206 721 627 363 6 549 319 169 346 3 636 354 422 325 323 104 714 451 658 494 30
split_gain=561.677 260.882 127.635 126.077 118.378 104.397 83.3567 69.6724 66.2357 59.7608 61.7481 53.7801 45.4169 37.2286 30.9185 30.659 30.6254 28.4925 28.0814 26.9921 26.291 23.5261 22.8433 22.0104 21.9855 20.6412 19.1561 19.0574 18.6655 18.3799 15.9713 15.8215
threshold=0.027567289769649509 0.092739239335060134 0.58928650617599498 0.68609690666198742 -0.21686770766973493 0.46594864130020147 -1.2515034079551695 -0.067711032927036272 -1.4821673035621641 0.025633751414716247 0.45249110460281378 0.50697952508926403 0.64027279615402233 -0.14590412378311154 -0.64861109852790821 0.034511895850300796 0.4143409281969071 0.95874369144439708 0.4185857772827149 0.08247075974941255 -0.24167108535766599 0.5026584565639497 -0.65774908661842335 0.63786846399307262 0.37650521099567419 0.24334200471639636 0.41744005680084234 0.14555887132883075 0.44685555994510656 -0.014254136011004446 0.20151313394308093 -0.04626003094017505
decision_type=2 2 2 2 2 2 2 2 2 2 2 2 2 2 2 2 2 2 2 2 2 2 2 2 2 2 2 2 2 2 2 2
left_child=1 7 13 8 5 17 23 20 19 29 -11 -8 15 -2 16 26 -10 25 27 -4 -1 -16 -20 -7 -9 -3 -6 -15 -21 -5 -26 -32
right_child=2 4 3 9 12 6 11 24 14 10 -12 -13 -14 18 21 -17 -18 -19 22 28 -22 -23 -24 -25 30 -27 -28 -29 -30 -31 31 -33
leaf_value=6.8761220963889658 6.9567752637207834 6.9588312066797133 6.8713093449567477 6.918777449444721 6.9088928070551576 6.9538109575939941 7.0001054279280472 6.9061247547246376 6.9084628114015976 6.8740870956577513 6.9579046350312197 7.0721151804016067 6.8969345332641891 6.9065346700034302 6.9450457099023355 6.9923736530768501 6.965892875216797 7.0019963522404751 6.9341294440859667 6.899460772377183 6.9323433470945988 6.8904558115050607 6.8824755118104326 6.9857080030032934 6.9175638197306206 6.9813074310868819 6.9539056546343634 6.872075075177329 6.9405720379236122 6.9788928559264161 6.9859743601142874 6.9475705400437668
leaf_weight=58 20 375 21 20 21 102 466 28 20 111 21 22 29 47 67 40 288 43 49 33 24 21 27 76 26 106 209 111 70 21 28 95
leaf_count=58 20 375 21 20 21 102 466 28 20 111 21 22 29 47 67 40 288 43 49 33 24 21 27 76 26 106 209 111 70 21 28 95
internal_value=6.95327 6.96836 6.9254 6.9354 6.97561 6.98196 6.99376 6.92676 6.94646 6.90217 6.88745 7.00337 6.95035 6.89815 6.95542 6.95607 6.96215 6.96694 6.89312 6.91781 6.89251 6.93195 6.9157 6.96741 6.94265 6.96379 6.94977 6.88229 6.92735 6.94967 6.94955 6.95628
internal_weight=2695 1748 947 693 1489 1190 666 259 520 173 132 488 299 254 396 270 308 524 234 124 82 88 76 178 177 481 230 158 103 41 149 123
internal_count=2695 1748 947 693 1489 1190 666 259 520 173 132 488 299 254 396 270 308 524 234 124 82 88 76 178 177 481 230 158 103 41 149 123
is_linear=0
shrinkage=1


Tree=1
num_leaves=33
num_cat=0
split_feature=566 0 663 579 22 579 233 500 624 131 341 436 658 269 316 298 523 36 565 498 41 292 718 639 279 395 716 70 354 476 424 69
split_gain=512.68 203.664 153.549 125.154 92.2761 85.1138 78.0644 67.6072 59.1657 53.6574 61.3043 51.07 50.9377 45.0313 38.2914 35.6875 35.644 34.1353 31.2489 31.0562 29.9831 28.6186 28.5553 22.6161 20.4927 20.3139 16.832 16.5349 15.7475 15.1335 13.8483 12.5176
threshold=-0.016891047358512875 0.33809067308902746 1.1684779524803164 -0.59798806905746449 0.55380401015281688 -0.66363850235939015 0.46458898484706884 0.40207508206367498 -0.36832390725612635 0.41526591777801519 1.0570635795593264 -0.50316151976585377 -0.037580568343400948 0.62847158312797557 -0.38207790255546564 -1.265167713165283 -0.61282598972320546 -0.55307435989379872 0.14563985913991931 -0.77357417345046986 -1.0414531826972959 0.0080856201238930243 -0.094210896641015993 -0.24432545900344846 0.19041872024536136 0.42932172119617468 -0.17439867556095121 0.078652445226907744 -0.66339218616485585 -0.2515407651662826 0.33242842555046087 0.41095860302448278
decision_type=2 2 2 2 2 2 2 2 2 2 2 2 2 2 2 2 2 2 2 2 2 2 2 2 2 2 2 2 2 2 2 2
left_child=2 8 3 19 6 12 26 9 13 11 -11 -7 23 -2 -5 -8 -10 -6 -17 27 -14 -19 24 -3 -16 -15 -4 -1 -22 -21 -23 -28
right_child=1 5 4 14 17 7 15 -9 16 10 -12 -13 20 25 22 18 -18 21 -20 29 28 30 -24 -25 -26 -27 31 -29 -30 -31 -32 -33
leaf_value=0.048898187073404806 0.027793899173875359 0.0019681005613422821 -0.023544348747180678 -0.066588656496652937 0.045618813183029502 0.030857181182123817 0.0067368638717337937 -0.068824599847112644 -0.024787514938342647 -0.090740232870218068 -0.011939463644563568 -0.01699365165339866 0.064697171213200552 -0.07234341418041236 -0.021459964376295913 0.051817372770600861 -0.075837580850897784 -0.047373306899849817 0.10980683398906457 0.028606235304593299 0.015397790209701128 -0.028006784443908642 -0.0657300417546373 -0.052249935535421344 0.029899197333155821 -0.013891020879580154 0.052461760109965054 0.0031444668291266604 -0.013726340002380105 0.0039818851291984021 0.010234830493697942 0.013977787817101553
leaf_weight=60 25 26 21 52 37 51 34 58 33 40 40 380 22 27 49 344 179 24 20 57 199 22 20 38 23 22 20 22 46 440 143 121
leaf_count=60 25 26 21 52 37 51 34 58 33 40 40 380 22 27 49 344 179 24 20 57 199 22 20 38 23 22 20 22 46 440 143 121
internal_value=-0.000695314 -0.0228016 0.0166763 0.0017259 0.0304225 -0.0122987 0.0402035 -0.0228384 -0.0558332 -0.0176071 -0.0514107 -0.0113199 0.00580674 -0.0211488 -0.0357479 0.0509098 -0.0679155 0.00616537 0.0550232 0.0110545 0.0144474 -0.00154074 -0.0182553 -0.0301646 -0.00498867 -0.0462091 0.0138696 0.0366804 0.00991107 0.00681606 0.00510613 0.0194759
internal_weight=2695 1186 1509 723 786 900 560 569 286 511 80 431 331 74 144 398 212 226 364 579 267 189 92 64 72 49 162 82 245 497 165 141
internal_count=2695 1186 1509 723 786 900 560 569 286 511 80 431 331 74 144 398 212 226 364 579 267 189 92 64 72 49 162 82 245 497 165 141
is_linear=0
shrinkage=0.0449308


Tree=2
num_leaves=33
num_cat=0
split_feature=368 510 0 254 729 445 579 293 507 70 462 367 616 203 587 392 79 191 14 236 132 279 215 649 636 615 246 583 371 96 446 407
split_gain=424.767 169.318 159.735 124.186 79.9798 73.3254 56.3594 54.2866 53.5437 41.5135 46.8414 39.0285 36.9387 32.4843 31.0876 31.0134 30.7501 29.8331 28.7876 27.9986 26.665 25.2594 24.0647 22.9664 22.3735 20.316 20.2034 19.365 18.5675 18.1016 16.1856 15.1122
threshold=-0.13141893595457074 -0.43304394185543055 0.45416215062141424 0.374341830611229 -0.16589578986167905 -0.086513258516788469 -0.40750877559185023 0.11309083923697473 0.42505536973476415 -0.15994462370872495 -0.51428037881851185 0.77251029014587413 -0.44496087729930872 -0.3046021163463592 -0.57406795024871815 -0.041699863970279687 0.60610276460647594 0.0083653922192752379 -1.3213227391242979 -1.2120731472969053 0.068990293890237822 0.18424943089485171 0.7305891513824464 -0.84772431850433339 0.43430875241756445 0.25179563462734228 0.042501948773860938 0.54659098386764537 0.35997879505157476 -0.63740277290344227 0.49465161561965948 -0.45560632646083826
decision_type=2 2 2 2 2 2 2 2 2 2 2 2 2 2 2 2 2 2 2 2 2 2 2 2 2 2 2 2 2 2 2 2
left_child=1 3 5 4 20 11 12 18 16 -9 -11 15 14 24 -4 -2 23 25 31 -14 -1 -16 -8 -3 26 -6 -7 -21 -13 -17 -10 -5
right_child=2 8 6 7 17 13 22 9 30 10 -12 28 19 -15 21 29 -18 -19 -20 27 -22 -23 -24 -25 -26 -27 -28 -29 -30 -31 -32 -33
leaf_value=0.057635820513623967 -0.045862611791284542 -0.062075452151326101 -0.046680082914809247 -0.018457723313903069 0.0060222638207763435 -0.070776027560614602 -0.017628566408903243 -0.033479602204725956 -0.068228782587286443 0.03277744993213285 0.0085569876139421613 -0.079176588550958465 -0.058772598255809931 -0.022533343925713465 -0.0020282754577414688 0.036040367218768091 0.030564802248480342 0.057900784851869024 -0.067581026196604263 -0.041110018174323637 0.010537345535219931 0.022292254866365956 -0.083518128565737385 -0.00020294278445369548 -0.081270891157098554 0.052821451554680175 -0.018094042634631897 -0.0040964790559276792 -0.029631306729435536 -0.0097331281720000676 -0.026608024486261473 0.022505827404738801
leaf_weight=263 44 20 22 74 175 33 20 35 53 241 489 32 30 36 202 21 34 32 20 36 27 150 26 31 115 21 27 139 30 102 30 24
leaf_count=263 44 20 22 74 175 33 20 35 53 241 489 32 30 36 202 21 34 32 20 36 27 150 26 31 115 21 27 139 30 102 30 24
internal_value=0.000158175 0.0150251 -0.0217401 0.0201381 0.0376059 -0.04248 -0.00713108 0.00988511 -0.0275845 0.0142638 0.0165599 -0.0248377 -0.00331897 -0.0616014 0.00507406 -0.0134973 -0.00246313 0.0176632 -0.0184622 -0.0186509 0.053267 0.00832421 -0.0549908 -0.0245708 -0.069609 0.0110649 -0.0471594 -0.0117404 -0.0552954 -0.001877 -0.0532503 -0.00837843
internal_weight=2634 1569 1065 1401 518 440 625 883 168 765 730 229 579 211 374 167 85 228 118 205 290 352 46 51 175 196 60 175 62 123 83 98
internal_count=2634 1569 1065 1401 518 440 625 883 168 765 730 229 579 211 374 167 85 228 118 205 290 352 46 51 175 196 60 175 62 123 83 98
is_linear=0
shrinkage=0.0449308


Tree=3
num_leaves=33
num_cat=0
split_feature=566 0 712 579 86 36 609 721 295 150 432 316 206 615 255 713 135 626 759 522 659 426 719 613 115 706 496 559 385 576 254 155
split_gain=419.965 161.139 133.189 114.281 80.7195 68.3733 52.7226 49.4102 45.0563 47.2212 40.3862 40.3008 42.532 36.5254 32.3783 30.579 30.4794 27.7758 26.1029 25.5984 24.0637 23.763 22.2548 21.208 20.5801 20.3778 19.5573 18.0491 16.2099 14.806 13.8012 13.6999
threshold=0.0026342979399487381 0.33809067308902746 -0.078343637287616716 -0.54623523354530323 -0.42925328016281122 -0.36308635771274561 0.22724843770265582 0.74723923206329357 -0.51150932908058155 0.36065801978111273 0.69927144050598156 -0.41458138823509211 0.50417673587799083 -0.022710113786160942 -0.99397811293601979 1.4676758646965029 0.89597302675247203 -0.18550243228673932 0.36575478315353399 -0.78849554061889637 -0.74880838394165028 -1.3284016847610471 1.2337964773178103 -0.43338683247566218 -0.34175212681293482 0.34117904305458074 -0.24369836598634717 0.14223263412714007 -0.23615024983882901 0.21784514188766482 0.39331591129302984 -0.02024911995977163
decision_type=2 2 2 2 2 2 2 2 2 2 2 2 2 2 2 2 2 2 2 2 2 2 2 2 2 2 2 2 2 2 2 2
left_child=2 10 3 8 6 15 22 14 23 19 28 -5 24 25 -6 -4 31 -7 -16 -10 -11 -9 -3 -1 -13 29 30 -25 -2 -12 -17 -8
right_child=1 4 5 11 7 17 16 21 9 20 13 12 -14 -15 18 26 -18 -19 -20 -21 -22 -23 -24 27 -26 -27 -28 -29 -30 -31 -32 -33
leaf_value=-0.035694697847799516 -0.077222326802251023 -0.023255572993326094 -0.025928634582270599 -0.069451551437541115 0.04889424325132978 0.056262516411394008 -0.0033805073653627917 -0.060958049204266715 -0.013143704359790056 0.056493818337692396 -0.016649141815984026 -0.066280660197170188 0.041603557078732513 0.014464136596080616 0.0060942593779254638 0.044220677738668994 -0.057892203580248019 0.012524015686731321 -0.022474398468944144 0.036294990254736502 0.0075119241054518535 -0.0062242081186490907 -0.076432934440552561 0.015213823161495435 -0.013476108761649704 -0.076467500849115508 0.062345453757640994 -0.013663414619948229 -0.03905995376416542 -0.06072455267267924 0.0038852616902427931 -0.043606776014261953
leaf_weight=41 110 22 33 42 30 226 119 38 23 21 44 24 20 25 334 23 32 34 80 244 573 28 60 84 40 31 21 91 29 24 68 20
leaf_count=41 110 22 33 42 30 226 119 38 23 21 44 24 20 25 334 23 32 34 80 244 573 28 60 84 40 31 21 91 29 24 68 20
internal_value=0.000149938 -0.0223082 0.0144824 0.00697469 -0.011846 0.0367705 -0.0325943 -0.00154352 0.0117145 0.0163189 -0.05264 -0.0334995 -0.015456 -0.0339188 0.00384034 0.0120076 -0.0183502 0.0505613 0.000562237 0.0320192 0.0092533 -0.0378148 -0.0622305 -0.00661859 -0.0333644 -0.0461809 0.0232273 0.000173186 -0.0693004 -0.0322861 0.0141372 -0.00920668
internal_weight=2634 1026 1608 1203 763 405 253 510 1077 861 263 126 84 124 444 145 171 260 414 267 594 66 82 216 64 99 112 175 139 68 91 139
internal_count=2634 1026 1608 1203 763 405 253 510 1077 861 263 126 84 124 444 145 171 260 414 267 594 66 82 216 64 99 112 175 139 68 91 139
is_linear=0
shrinkage=0.0449308


Tree=4
num_leaves=33
num_cat=0
split_feature=566 293 0 550 597 23 625 461 159 131 368 624 176 523 542 454 97 95 166 336 98 706 353 572 293 407 579 563 703 185 240 468
split_gain=386.828 208.785 146.469 113.05 96.2699 57.9341 43.4942 41.6779 46.931 39.7403 38.0503 36.4993 35.0014 33.6903 33.1938 28.6704 26.5043 24.4626 23.6361 22.6734 22.1767 21.9957 20.3786 15.6476 15.5646 14.1451 14.0322 12.7301 12.0067 11.1528 10.4924 9.98432
threshold=0.027567289769649509 -0.017055671662092205 0.32472467422485357 -0.26465915143489832 -0.56834226846694935 0.60588744282722484 -0.23689838498830793 0.017862138338387016 1.1665903329849245 0.38312681019306188 0.21610831469297412 -0.36627288162708277 0.47696746885776525 -0.58859476447105397 -0.27224116027355189 0.6186766028404237 0.27044689655303961 0.59920844435691845 0.296356812119484 -0.18940649926662442 0.40755154192447668 0.39270508289337164 -0.71699273586273182 0.055492537096142776 0.20702050626277926 -0.65763884782791127 -0.59223592281341542 0.37127372622489935 0.12649443000555041 -0.52218666672706593 -0.37064781785011286 0.1377639323472977
decision_type=2 2 2 2 2 2 2 2 2 2 2 2 2 2 2 2 2 2 2 2 2 2 2 2 2 2 2 2 2 2 2 2
left_child=1 14 11 4 6 19 15 8 -6 17 12 16 20 -13 25 -3 -2 22 -14 31 -7 23 -5 -21 -8 -1 -16 -15 -23 -9 -12 -4
right_child=2 3 5 9 7 10 24 29 -10 -11 30 13 18 27 26 -17 -18 -19 -20 21 -22 28 -24 -25 -26 -27 -28 -29 -30 -31 -32 -33
leaf_value=-0.044543169470539774 -0.051663963118491793 -0.01010986235256345 -0.037248852081538622 -0.032884473996203381 0.041802080346536201 0.0057778431326034919 -0.0098709288495459034 0.024057711060853144 0.1079045394599517 -0.048835519918262307 -0.023468065880784816 -0.019169767737916871 -0.0025861862283321066 -0.077105436872900071 -0.031568052863484637 0.035734231934745349 0.012998104434962359 -0.039769824536310304 -0.067454762470266355 -0.025621220241689422 -0.042695911847935551 -0.028158386213841993 0.0079560740696033496 0.013967180831749422 0.010360383592120614 0.0027792811116007982 -0.075679955225540649 -0.041604643722692423 -0.074106186878847083 -0.0059137549734910467 -0.069393968206762455 -0.08010554482936412
leaf_weight=21 26 33 20 26 404 387 145 112 23 31 21 30 21 130 21 162 25 25 25 57 20 25 461 31 163 32 51 25 22 32 20 26
leaf_count=21 26 33 20 26 404 387 145 112 23 31 21 30 21 130 21 162 25 25 25 57 20 25 461 31 163 32 51 25 22 32 20 26
internal_value=0.000512312 0.0129209 -0.0232102 0.0172479 0.0256951 -0.0125481 0.0113496 0.0383236 0.0453792 0.000531584 -0.00456958 -0.0536826 -0.000807246 -0.0629704 -0.0430095 0.0279535 -0.0198919 0.0035314 -0.0379531 -0.034296 0.00338262 -0.024951 0.00576515 -0.0116262 0.000821851 -0.0159025 -0.0628902 -0.0714154 -0.0497871 0.0173675 -0.0460063 -0.061598
internal_weight=2653 1742 911 1617 1074 675 503 571 427 543 494 236 453 185 125 195 51 512 46 181 407 135 487 88 308 53 72 155 47 144 41 46
internal_count=2653 1742 911 1617 1074 675 503 571 427 543 494 236 453 185 125 195 51 512 46 181 407 135 487 88 308 53 72 155 47 144 41 46
is_linear=0
shrinkage=0.0449308


Tree=5
num_leaves=33
num_cat=0
split_feature=566 0 514 254 579 461 23 637 507 588 368 624 176 17 496 523 315 353 486 718 269 120 166 535 336 706 648 201 572 587 185 703
split_gain=352.9 133.597 123.61 113.315 74.8988 55.7962 52.8541 44.8223 43.8921 39.316 34.7178 33.2929 31.9357 30.9077 38.5472 30.721 27.5576 27.39 25.6298 24.9821 24.4197 22.7749 21.6841 20.9982 20.6811 20.0687 19.6919 17.9817 14.276 11.8474 11.6597 10.9442
threshold=0.027567289769649509 0.32472467422485357 0.30120795965194708 0.42148594558238989 -0.54623523354530323 0.0082950028590858 0.60588744282722484 0.15295016765594485 0.52539092302322399 -0.5663277506828307 0.21610831469297412 -0.36627288162708277 0.47696746885776525 1.2190351486206057 -0.36432883143424982 -0.58859476447105397 -0.33474525809288019 -0.6294456124305724 -0.33968305587768549 -0.17423297464847562 0.62847158312797557 -0.35590969026088709 0.30597139894962316 -0.34422366321086878 -0.18940649926662442 0.39270508289337164 0.23486425727605822 0.43829792737960821 0.055492537096142776 -0.46133852005004877 -0.32910975813865656 0.12649443000555041
decision_type=2 2 2 2 2 2 2 2 2 2 2 2 2 2 2 2 2 2 2 2 2 2 2 2 2 2 2 2 2 2 2 2
left_child=2 11 4 5 8 7 24 -4 17 19 12 20 21 14 -11 -13 -9 27 -19 -5 -2 -8 -14 -10 -3 28 -6 -1 -26 -7 -17 -27
right_child=1 6 3 9 26 29 10 16 23 13 -12 15 22 -15 -16 30 -18 18 -20 -21 -22 -23 -24 -25 25 31 -28 -29 -30 -31 -32 -33
leaf_value=-0.00021144092999107522 0.019547691655137363 -0.058837550061129319 0.10844591635048478 0.0018665824384964049 -0.015076543595561967 0.042215586248037042 -0.036600499867402631 0.012596466698859207 -0.061490867431317167 -0.0013677956528886652 -0.043946643614123565 -0.018309208933500961 -0.0065025914967978314 0.039880157549847105 0.022448547313564011 -0.073655867410177017 0.047753882972807367 0.023249386189203303 -0.0010138991325546528 -0.04942525013857841 -0.043996279754173515 0.0060738244821809629 -0.06846713969508772 -0.0034881059111321394 -0.024470569386751444 -0.02689453665288918 -0.060080906033806399 -0.053144980182545196 0.013340155982912588 0.0060610229783134763 -0.039663821975084591 -0.070780512609506852
leaf_weight=30 20 46 22 42 31 22 27 54 30 316 41 30 24 74 242 130 282 179 172 35 31 380 22 22 57 25 55 23 31 111 25 22
leaf_count=30 20 46 22 42 31 22 27 54 30 316 41 30 24 74 242 130 282 179 172 35 31 380 22 22 57 25 55 23 31 111 25 22
internal_value=0.000487968 -0.0221703 0.01234 0.0203844 -0.00546249 0.0369779 -0.0119871 0.0462136 0.00178276 0.00888588 -0.00436592 -0.0512731 -0.000771683 0.0125834 0.00895399 -0.0601441 0.0421179 0.00679361 0.0113482 -0.0214007 -0.0189952 0.00323006 -0.0362538 -0.0370484 -0.0327598 -0.0238323 -0.0439182 -0.023279 -0.0111018 0.0120811 -0.0682088 -0.0475568
internal_weight=2653 911 1742 1200 542 491 675 358 456 709 494 236 453 632 558 185 336 404 351 77 51 407 46 52 181 135 86 53 88 133 155 47
internal_count=2653 911 1742 1200 542 491 675 358 456 709 494 236 453 632 558 185 336 404 351 77 51 407 46 52 181 135 86 53 88 133 155 47
is_linear=0
shrinkage=0.0449308


Tree=6
num_leaves=33
num_cat=0
split_feature=293 53 550 494 457 449 268 320 574 657 144 477 511 201 0 682 662 246 471 733 626 680 188 766 558 224 118 460 82 385 607 74
split_gain=294.518 192.332 94.9813 85.9831 72.473 57.54 50.2711 50.2996 46.2772 45.0904 50.6662 36.6458 32.5616 32.0213 30.1525 29.0065 27.9824 23.7698 23.2777 21.2796 20.9116 20.6977 18.5366 19.7824 17.3162 16.4603 16.4243 14.4431 13.858 13.8474 11.2328 10.012
threshold=0.14264100790023806 -0.22685535252094266 -0.21125688403844831 0.23744460195302966 0.0038835383020341401 0.17437954992055896 -1.2175113558769224 -1.0034580826759336 -0.68086916208267201 0.0015413756482303145 0.34981258213520056 -0.17263878881931302 0.51570585370063793 0.10636984556913377 0.4620878547430039 0.89679211378097545 0.46370622515678411 -0.17845575511455533 0.82562938332557689 0.89017868041992199 -0.35011212527751917 0.26112665235996252 -0.26025295257568354 -0.30203495919704432 -0.22374054789543149 -0.75551411509513844 0.69770458340644848 0.11547340452671052 0.14762002974748614 -0.27503924071788782 0.41300028562545782 0.045542044565081603
decision_type=2 2 2 2 2 2 2 2 2 2 2 2 2 2 2 2 2 2 2 2 2 2 2 2 2 2 2 2 2 2 2 2
left_child=3 11 4 8 15 22 26 -8 31 20 14 24 17 -7 16 18 -11 -10 -3 -16 25 -19 23 -4 30 -5 -6 -22 -13 -14 -2 -1
right_child=1 2 5 9 6 13 7 -9 12 10 -12 28 29 -15 19 -17 -18 21 -20 -21 27 -23 -24 -25 -26 -27 -28 -29 -30 -31 -32 -33
leaf_value=-0.022266348355407396 -0.016119998180548597 0.0059918435791347265 0.0037395497648039224 -0.035943866580362541 -0.01532451227136428 -0.0041317163986606354 0.061022357358464473 0.028648120943687232 -0.00070177766980926404 -0.05708179438285358 -0.06277249633448416 -0.068284216255825106 -0.073345804401689946 -0.058522282706152784 0.03567485824893353 0.045670284291199452 -0.01265017363535822 -0.01520179580118413 0.027582487517886643 -0.0070775253777799144 0.053039313644463848 -0.059561887298355404 0.017849626801805449 -0.039454568066049335 0.018626609928433294 0.020294421283124853 0.026783823042911423 0.0049234734313243758 -0.024081899679509317 -0.03187781766127095 -0.05137677945853758 0.0089046292021674536
leaf_weight=72 79 564 81 20 47 37 155 261 33 47 43 54 99 54 26 49 74 32 123 241 35 65 121 29 23 22 31 20 20 20 24 29
leaf_count=72 79 564 81 20 47 37 155 261 33 47 43 54 99 54 26 49 74 32 123 241 35 65 121 29 23 22 31 20 20 20 24 29
internal_value=-0.000475247 0.010167 0.015513 -0.0217158 0.0212008 -0.00620033 0.0345177 0.0407241 -0.0389892 -0.0102561 -0.0164901 -0.0312931 -0.0494002 -0.0364625 -0.0113459 0.0122558 -0.0299531 -0.0337759 0.00986461 -0.00289509 0.0173961 -0.0449802 0.00570522 -0.00761544 -0.0164997 -0.00638868 0.00135888 0.0356318 -0.0564088 -0.0664213 -0.0243881 -0.0132735
internal_weight=2630 1752 1552 878 1230 322 494 416 350 528 431 200 249 91 388 736 121 130 687 267 97 97 231 110 126 42 78 55 74 119 103 101
internal_count=2630 1752 1552 878 1230 322 494 416 350 528 431 200 249 91 388 736 121 130 687 267 97 97 231 110 126 42 78 55 74 119 103 101
is_linear=0
shrinkage=0.0449308


Tree=7
num_leaves=33
num_cat=0
split_feature=566 293 550 721 23 457 554 293 405 183 589 487 318 215 715 731 14 169 682 325 337 237 28 568 500 223 604 636 56 30 167 648
split_gain=293.266 145.491 76.9976 70.3708 73.0834 59.9837 54.716 44.0415 42.863 35.8686 29.5762 28.2782 26.3723 26.1195 25.4865 23.2311 26.2468 22.5015 22.2516 22.0489 21.8489 20.7442 19.6651 19.1095 18.8898 17.3726 15.4619 17.0213 14.5592 12.9584 12.7677 12.2743
threshold=0.032236289232969291 0.14512227475643161 -0.26388932764530176 0.71653237938880932 0.61358848214149486 -0.033030305057764046 0.47868300974369055 -0.051272723823785775 -0.45745712518692011 0.22031945735216144 -0.87083402276039112 -0.12178874388337134 1.031507194042206 0.70773926377296459 0.45435120165348059 1.2160126566886904 -1.3537474274635313 0.60851070284843456 0.89679211378097545 0.32611666619777685 0.0073150189127773055 -0.31760506331920618 0.55413499474525463 0.83710089325904857 0.24170543998479846 0.15909615904092791 -0.67097014188766468 0.070201549679040923 -0.44405211508274073 -0.02638896461576223 0.71723592281341564 0.13655836135149005
decision_type=2 2 2 2 2 2 2 2 2 2 2 2 2 2 2 2 2 2 2 2 2 2 2 2 2 2 2 2 2 2 2 2
left_child=1 7 5 4 24 15 12 21 -5 13 23 17 -7 14 -6 18 -17 22 -3 -9 -15 -1 -4 -10 26 -11 -2 -28 -21 -8 -26 -30
right_child=3 2 11 8 9 6 29 19 10 25 -12 -13 -14 20 -16 16 -18 -19 -20 28 -22 -23 -24 -25 30 -27 27 -29 31 -31 -32 -33
leaf_value=-0.055295674018921152 -0.0034658537304697837 0.0056621020875717576 0.010798626324723693 0.014920302103262681 0.0096621510277369784 0.0076718482358415652 0.056005253573426263 -0.049968064734611947 -0.053240162233027542 -0.00018615157346545098 -0.068157987003574505 -0.043595946404251441 0.035295660661460559 -0.063057690498694155 -0.038400997335572527 0.018771027675355982 0.081030060422283237 -0.030773044808432678 0.043755524220823454 0.022840063226866034 -0.0090600173119414727 -0.005992455928827624 -0.029681804282588282 0.0027096883955590638 -0.057416363126287361 -0.047001930341621791 -0.001600665506620627 -0.046595788194342708 0.0075792095870875495 0.096191173195613336 -0.017895694947237115 -0.01351567669460467
leaf_weight=63 48 350 342 20 301 99 97 21 25 23 106 26 240 20 24 44 20 33 34 40 63 24 26 24 84 54 23 67 84 20 21 164
leaf_count=63 48 350 342 20 301 99 97 21 25 23 106 26 240 20 24 44 20 33 34 40 63 24 26 24 84 54 23 67 84 20 21 164
internal_value=-0.000454322 0.0103931 0.0175078 -0.0212046 -0.0150452 0.0249352 0.0364121 -0.0135089 -0.0467971 -0.00495744 -0.0547897 0.0017727 0.0272425 0.000341006 0.00609676 0.0132421 0.0383197 0.00472774 0.00904897 -0.00554061 -0.0221394 -0.0417503 0.00792494 -0.0257613 -0.0351587 -0.0330789 -0.0241627 -0.0351488 -0.00228185 0.0629316 -0.0495598 -0.00635317
internal_weight=2630 1727 1331 903 728 904 456 396 175 485 155 427 339 408 325 448 64 401 384 309 83 87 368 49 243 77 138 90 288 117 105 248
internal_count=2630 1727 1331 903 728 904 456 396 175 485 155 427 339 408 325 448 64 401 384 309 83 87 368 49 243 77 138 90 288 117 105 248
is_linear=0
shrinkage=0.0449308


Tree=8
num_leaves=33
num_cat=0
split_feature=566 293 0 279 86 527 609 243 634 5 489 726 436 579 579 196 184 454 325 484 523 737 129 340 66 45 563 28 622 662 407 448
split_gain=288.779 151.226 86.9489 59.4191 49.8838 49.4356 40.0566 39.5368 41.5433 32.829 29.4505 29.2228 26.9803 26.2921 25.4042 24.2497 23.8069 23.2852 22.5304 19.625 18.3286 18.7945 16.5347 15.5047 15.2497 17.7506 13.2901 12.0324 11.3067 10.1501 9.48369 8.9986
threshold=0.020496661774814132 0.017466634511947635 0.33809067308902746 0.18009846657514575 -0.42925328016281122 0.23927770555019381 0.22724843770265582 1.2160032391548159 1.4989705085754397 -0.53811648488044728 0.2361039072275162 -0.2562390267848968 -0.49742266535758967 -0.60781705379486073 -0.46753568947315211 0.31696870923042303 0.052753616124391563 1.1455236673355105 0.42873005568981176 -0.69100236892700184 -0.39962932467460627 0.43956856429576879 0.2587625533342362 0.39472970366477972 -0.22163060307502744 0.53603297472000133 0.23164965957403186 0.40557324886322027 0.59441450238227855 0.32546778023242956 -0.59592908620834339 0.43450595438480383
decision_type=2 2 2 2 2 2 2 2 2 2 2 2 2 2 2 2 2 2 2 2 2 2 2 2 2 2 2 2 2 2 2 2
left_child=1 14 9 13 6 11 19 8 -7 -2 12 -5 28 24 18 -14 31 23 -1 -4 21 22 -11 -8 25 -3 -22 -15 -6 -28 -9 -12
right_child=2 3 4 5 10 7 17 30 -10 20 16 -13 15 27 -16 -17 -18 -19 -20 -21 26 -23 -24 -25 -26 -27 29 -29 -30 -31 -32 -33
leaf_value=-0.054399651373859603 0.010028904405197258 -0.025741583531274984 -0.065384059541800044 -0.040503225725782931 0.057976978495344493 0.023372058044076906 -0.019177875817408672 0.028829503353728924 -0.021017794495470147 -0.039402398138195828 0.015449099444184426 0.025123935037549464 0.0028448330700345521 -0.009154582551386712 -0.061684182216505255 -0.036156868514297502 -0.054140474125895691 -0.060329282377524808 -0.0065329851918998743 -0.014821649582188188 -0.073731056044340146 -0.070988802051417041 -0.0021761957119269914 0.010606079000428538 -0.0046104927252218712 0.014936804031558545 -0.057635750905172672 -0.049170232802092984 0.011461561711510174 -0.01794952448875731 0.055964569393365693 -0.025601103390589183
leaf_weight=28 23 23 62 39 23 750 101 38 45 67 22 21 301 50 44 36 36 20 69 21 60 23 38 54 149 347 36 22 20 21 89 21
leaf_count=28 23 23 62 39 23 750 101 38 45 67 22 21 301 50 44 36 36 20 69 21 60 23 38 54 149 347 36 22 20 21 89 21
internal_value=9.33449e-05 0.0112362 -0.0192918 0.015234 -0.0111214 0.0220094 -0.0269292 0.0245831 0.0208534 -0.0411315 -0.00222548 -0.0174608 0.00295405 0.00396829 -0.0333266 -0.0013112 -0.027187 -0.0146986 -0.0204057 -0.0526519 -0.0459525 -0.0341102 -0.0259751 -0.00877363 0.00750445 0.0123948 -0.0588607 -0.021455 0.0364625 -0.0431053 0.0478871 -0.00450169
internal_weight=2699 1714 985 1573 717 982 258 922 795 268 459 60 380 591 141 337 79 175 97 83 245 128 105 155 519 370 117 72 43 57 127 43
internal_count=2699 1714 985 1573 717 982 258 922 795 268 459 60 380 591 141 337 79 175 97 83 245 128 105 155 519 370 117 72 43 57 127 43
is_linear=0
shrinkage=0.0449308


Tree=9
num_leaves=33
num_cat=0
split_feature=566 293 0 550 233 86 561 279 432 677 487 627 454 721 296 96 41 404 714 579 496 555 195 576 17 0 693 150 144 150 369 88
split_gain=264.389 121.043 92.008 60.2857 75.0215 52.4365 43.2295 37.5533 33.5233 32.4656 28.2805 26.5062 25.0364 23.5833 28.6244 23.2614 22.4967 20.9773 20.5127 20.2135 18.1375 17.6979 17.6441 17.1102 19.7985 16.4238 15.5019 12.8565 7.80211 6.55567 6.46841 5.98961
threshold=-0.0035525250714272256 0.017466634511947635 0.33809067308902746 -0.26465915143489832 0.47043411433696752 -0.42925328016281122 0.7362445890903474 0.17862313240766528 0.69927144050598156 -0.56305021047592152 -0.12178874388337134 0.36057142913341528 1.1455236673355105 0.77107706665992748 -0.20606792718172071 -0.69844481348991383 -1.0256796479225156 -0.63594511151313771 -0.070162862539291368 -0.46424205601215357 -0.40973161160945887 -0.67730122804641713 1.1190264225006106 0.17702242732048037 0.85876312851905834 0.54020756483078014 -0.52266374230384816 0.44090665876865393 0.015013379044830801 0.48244103789329534 0.27693563699722296 -0.049332574009895318
decision_type=2 2 2 2 2 2 2 2 2 2 2 2 2 2 2 2 2 2 2 2 2 2 2 2 2 2 2 2 2 2 2 2
left_child=1 19 8 4 15 6 12 26 28 -9 18 -10 22 14 16 27 -7 -15 29 25 -17 -20 -4 24 -13 -1 -6 -3 -2 -5 -25 -27
right_child=2 3 5 10 7 13 -8 9 11 -11 -12 23 -14 17 -16 20 -18 -19 21 -21 -22 -23 -24 30 -26 31 -28 -29 -30 -31 -32 -33
leaf_value=-0.043050386972319998 -0.028794047154935366 0.04289593998616141 -0.018809858672619067 0.050978974520625983 0.040523584670164037 0.043863747786394014 -0.061956309131150092 0.095436820432342029 0.021065876074267648 0.036629777008161724 -0.038718217021140706 -0.036846532938740718 -0.059962468437812437 0.0021476656420301677 -0.038449997787623411 -0.0047369235944893784 0.0023271643690221532 -0.052610293896894873 0.031569399228455898 -0.060499320446425905 0.015606910511633586 -0.0019918912894670102 0.012049102860777022 -0.033744971642872566 0.01235915282807023 0.013952764796424981 0.0038122716614220425 0.0050690428697114992 -0.058325418576002701 0.018728078618018187 -0.068700145914713046 -0.017772299460545191
leaf_weight=35 22 53 156 20 30 28 52 20 23 396 32 42 24 25 33 224 440 32 35 35 146 335 49 20 27 23 104 28 123 37 25 25
leaf_count=35 22 53 156 20 30 28 52 20 23 396 32 42 24 25 33 224 440 32 35 35 146 335 49 20 27 23 104 28 123 37 25 25
internal_value=8.80457e-05 0.0119422 -0.0165947 0.015482 0.0216648 -0.00912464 -0.024953 0.0328055 -0.0388012 0.0394733 0.0019885 -0.0228024 -0.0165256 -0.00114517 0.00196295 0.00806787 0.00482381 -0.028528 0.00505143 -0.031813 0.00327951 0.00117317 -0.0114121 -0.0316937 -0.0175322 -0.0196491 0.0120698 0.0298792 -0.0538806 0.0301382 -0.0532892 -0.00248146
internal_weight=2699 1578 1121 1460 1001 839 281 550 282 416 459 137 229 558 501 451 468 57 427 118 370 370 205 114 69 83 134 81 145 57 45 48
internal_count=2699 1578 1121 1460 1001 839 281 550 282 416 459 137 229 558 501 451 468 57 427 118 370 370 205 114 69 83 134 81 145 57 45 48
is_linear=0
shrinkage=0.0449308


Tree=10
num_leaves=33
num_cat=0
split_feature=579 84 430 446 254 663 354 597 245 325 720 629 51 435 235 501 133 729 518 464 708 765 224 234 734 420 721 593 479 382 651 460
split_gain=210.673 107.589 70.8976 69.0812 63.5112 46.7719 45.7425 36.7592 32.1157 29.0216 30.2068 30.3745 26.3521 25.5915 33.6097 29.0774 23.3351 29.4432 19.9994 19.9497 20.5985 19.3387 18.4837 16.5519 16.2651 15.2024 14.8026 13.9179 12.4613 12.3297 11.687 11.5818
threshold=-0.60116448998451222 -0.44491371512413019 0.71960842609405529 0.19070551544427874 0.374341830611229 1.137789845466614 -0.91725286841392506 -0.64685705304145802 -0.37214668095111841 0.73968431353569042 -0.10495270416140555 0.23812217265367511 -0.42564894258975977 -0.041396308690309518 -0.27201285958290095 0.70807448029518139 0.69579866528511058 -0.19083384424448011 -0.53310787677764881 -0.40402950346469874 0.28302097320556646 -0.069790754467248903 -0.99127942323684681 0.20065111666917804 -0.20805069059133527 -0.37719704210758204 0.77984175086021434 -0.31577298045158381 -0.43646499514579767 -0.21286887675523755 0.24007250368595126 1.0000000180025095e-35
decision_type=2 2 2 2 2 2 2 2 2 2 2 2 2 2 2 2 2 2 2 2 2 2 2 2 2 2 2 2 2 2 2 2
left_child=2 3 12 8 5 -4 -5 31 18 10 19 -12 28 14 15 -6 17 -7 -2 30 -21 -9 -14 -20 -10 -24 -15 -13 -1 -30 -3 -8
right_child=1 9 4 6 13 16 7 21 24 -11 11 27 22 26 -16 -17 -18 -19 23 20 -22 -23 25 -25 -26 -27 -28 -29 29 -31 -32 -33
leaf_value=-0.020120390136937328 -0.027889730791757945 -0.026363274954848397 0.0012607161044158974 -0.036799415980106588 0.021877624529466847 0.040911760520240446 -0.031212158768436676 0.081968894836238648 -0.051512040528982991 0.0048852442066630438 0.02222635406350152 -0.061861361118831441 -0.058564746832578098 0.0025311320864369697 0.03953425766119513 -0.0065567667132870313 0.07675564022391422 0.012499621024806033 0.030762515207287372 -0.042599054932309685 0.0045234399385649287 0.0334094738991422 0.00086914585951198913 -0.0057683335938603321 -0.011000084480173035 -0.038909007826420546 -0.035826108148204056 -0.014031810948106961 -0.014219120311437869 0.015570739412510163 -0.063883501104723378 0.015945039914208536
leaf_weight=48 74 20 110 25 154 226 20 21 62 32 28 23 30 591 93 137 25 110 29 97 23 82 43 182 30 35 21 27 40 93 121 22
leaf_count=48 74 20 110 25 154 226 20 21 62 32 28 23 30 591 93 137 25 110 29 97 23 82 43 182 30 35 21 27 40 93 121 22
internal_value=0.00022566 -0.0172149 0.0093458 -0.00453763 0.0133542 0.0269518 0.0192273 0.0289218 -0.015266 -0.0358929 -0.039755 -0.0151326 -0.0109859 0.00691918 0.0160119 0.00847676 0.0347675 0.0316247 -0.00779451 -0.0470946 -0.0335322 0.0433703 -0.0285479 -0.000723831 -0.0383555 -0.0169318 0.00120641 -0.0361407 -0.000480363 0.00657788 -0.058598 -0.00641348
internal_weight=2674 918 1756 547 1467 471 170 145 377 371 339 78 289 996 384 291 361 336 285 261 120 103 108 211 92 78 612 50 181 133 141 42
internal_count=2674 918 1756 547 1467 471 170 145 377 371 339 78 289 996 384 291 361 336 285 261 120 103 108 211 92 78 612 50 181 133 141 42
is_linear=0
shrinkage=0.0449308


Tree=11
num_leaves=33
num_cat=0
split_feature=368 510 252 83 494 579 494 322 714 496 206 749 284 150 342 0 367 184 47 578 682 445 84 695 462 104 102 127 660 28 620 486
split_gain=202.987 90.5469 81.0774 52.9987 48.3298 45.1107 44.7374 40.5833 38.3596 36.0476 34.8514 27.5586 25.0987 23.5501 21.1404 21.1214 20.5343 20.1045 29.6982 19.6262 19.601 17.4537 21.0248 17.1852 13.9503 12.9036 12.5812 12.5537 12.322 10.7586 10.5633 8.72309
threshold=-0.025659720413386818 -0.43304394185543055 0.05057306960225106 0.8936222791671754 0.28755328059196478 -0.66712757945060719 0.20317551493644717 0.10754176229238512 -0.088045917451381669 -0.38424551486968989 0.55002793669700634 1.483759939670563 1.8835606575012209 0.35239002108573919 0.0624180305749178 0.52905288338661205 0.70310842990875255 -0.031284799799323075 -0.48918788135051722 -0.32822933793067927 0.94588527083396923 0.067783743143081679 -0.47065030038356775 0.44107137620449072 -0.3849769383668899 0.39503407478332525 -0.031389245763421052 -0.091074168682098375 -0.12040108069777487 0.31498076021671301 0.12980040907859805 -0.11455431580543517
decision_type=2 2 2 2 2 2 2 2 2 2 2 2 2 2 2 2 2 2 2 2 2 2 2 2 2 2 2 2 2 2 2 2
left_child=1 2 5 10 7 20 15 -2 -3 -8 13 16 19 -4 24 -7 17 29 -19 -5 28 22 27 -13 -10 -16 -24 -9 -1 -6 -14 -27
right_child=4 8 3 12 11 6 9 21 14 -11 -12 23 30 -15 25 -17 -18 18 -20 -21 -22 -23 26 -25 -26 31 -28 -29 -30 -31 -32 -33
leaf_value=0.021914470472268816 0.011527167424473813 0.021377015698695805 0.022358375556323327 0.04444319597909431 0.00050520520174445241 -0.046711581517134164 -0.012313484457213955 0.0048798461814324855 -0.055629721407334153 0.019971833564399615 0.056036192302988647 -0.050610201547781855 0.039816773065959148 0.00019136794620605333 -0.042816880971592211 -0.011640783534849009 -0.027326037716719136 -0.0012822434278619646 0.065946603116287056 0.0038908658343816713 0.035335025139433582 -0.057067583574411003 -0.038050370307230234 -0.010378459791045347 -0.01549046191393868 0.020186607963748267 -0.078439409000573251 -0.03208524544414601 0.0039728596901165598 -0.033014068655806847 0.0029455727082074046 -0.01744714783301515
leaf_weight=94 33 34 144 244 119 74 173 35 68 117 32 47 21 296 20 66 54 31 23 27 55 92 76 40 24 23 20 39 440 23 63 27
leaf_count=94 33 34 144 244 119 74 173 35 68 117 32 47 21 296 20 66 54 31 23 27 55 92 76 40 24 23 20 39 440 23 63 27
internal_value=0.000215313 0.00710391 0.0101885 0.0206411 -0.0220344 0.00170088 -0.00935787 -0.0353198 -0.0219235 0.000697709 0.0107624 -0.0103901 0.0337616 0.00745674 -0.0310399 -0.0302143 -0.00279035 0.00395021 0.0272905 0.0404196 0.00978172 -0.0412374 -0.0326376 -0.0321712 -0.045213 -0.0123407 -0.0465289 -0.0145479 0.00714013 -0.00489867 0.0122244 -4.77737e-05
internal_weight=2674 2042 1846 827 632 1019 430 295 196 290 472 337 355 440 162 140 250 196 54 271 589 262 170 87 92 70 96 74 534 142 84 50
internal_count=2674 2042 1846 827 632 1019 430 295 196 290 472 337 355 440 162 140 250 196 54 271 589 262 170 87 92 70 96 74 534 142 84 50
is_linear=0
shrinkage=0.0449308


Tree=12
num_leaves=33
num_cat=0
split_feature=566 293 0 271 579 429 533 738 704 274 422 6 356 219 598 647 525 209 259 49 155 96 525 181 12 166 264 57 213 182 594 702
split_gain=184.495 86.5959 73.3586 52.0995 33.8944 33.5087 32.5653 32.1258 30.0487 33.9415 28.8787 26.9946 21.2562 21.079 24.8451 21.0583 20.4199 19.9432 18.361 17.012 16.3169 16.0701 15.1336 14.2148 13.0359 20.4802 9.39438 8.92226 7.52328 6.63319 6.34912 6.147
threshold=0.027567289769649509 -0.044663300737738602 0.45416215062141424 0.60498866438865673 -0.64690041542053212 0.50605320930480968 0.022033001296222213 -0.07046331092715262 0.761125147342682 0.50012601912021648 0.58790063858032238 -0.13168577849864957 -0.28648038208484644 -0.48657548427581782 0.19751813262701037 0.001325421442743391 -0.23184064030647275 -0.41172672808170313 0.95196494460105907 0.39632432162761694 -0.18948552757501599 -0.59321352839469899 -0.30380372703075403 0.43453051149845129 0.31781451404094702 0.27621437609195715 -0.013463288079947231 -0.29887071251869196 0.12652610242366794 -0.45581658184528345 0.012010330334305765 -0.12546658515930173
decision_type=2 2 2 2 2 2 2 2 2 2 2 2 2 2 2 2 2 2 2 2 2 2 2 2 2 2 2 2 2 2 2 2
left_child=1 16 4 5 15 11 -4 23 9 -7 21 20 -13 24 -15 28 -1 26 -16 -12 -3 -5 -23 30 25 -8 -9 -10 -2 -18 -6 -17
right_child=2 3 6 10 7 8 13 17 27 -11 19 12 -14 14 18 31 29 -19 -20 -21 -22 22 -24 -25 -26 -27 -28 -29 -30 -31 -32 -33
leaf_value=-0.0051105939432391032 0.028376709775266629 -0.027274502476147322 -0.046011981726726596 0.032294665751167351 -0.0093518050922406209 0.014052813265669021 -0.038056775884208298 -0.051388866606700764 0.018023243191789707 0.052658303621650603 0.044526791948983138 -0.00066298835094177411 0.027756861508413277 -0.030494349917020026 0.013174053942594873 -0.043094443101842059 -0.067183441248925876 -0.0095126644352608331 -0.011557877901831904 0.011245458609333072 -0.0038072748506257389 0.013366500787257119 -0.025506887829460319 -0.038765343085325886 -0.042000668074911311 0.022630119213163796 -0.023317094234559851 -0.01163143198615728 -0.0070417269508504209 -0.036157208023106395 0.02349209015461072 -0.0093418175655821077
leaf_weight=33 30 89 35 47 29 584 21 206 25 50 159 150 82 39 258 25 25 31 79 39 184 58 31 23 36 24 28 111 20 34 20 20
leaf_count=33 30 89 35 47 29 584 21 206 25 50 159 150 82 39 258 25 25 31 79 39 184 58 31 23 36 24 28 111 20 34 20 20
internal_value=3.01413e-05 0.00881097 -0.0161297 0.0112373 -0.0296414 0.00709428 -0.00425603 -0.0363255 0.0129937 0.0171063 0.0270379 -0.00189253 0.00936535 -0.00104617 0.00342305 -0.00588119 -0.0335673 -0.0435607 0.0073631 0.0379956 -0.0114755 0.0110488 -0.000128689 -0.00962997 -0.0218399 -0.0056002 -0.0480513 -0.00614602 0.0141267 -0.0494012 0.00397118 -0.0282034
internal_weight=2625 1701 924 1609 432 1275 492 337 770 634 334 505 232 457 376 95 92 265 337 198 273 136 89 72 81 45 234 136 50 59 49 45
internal_count=2625 1701 924 1609 432 1275 492 337 770 634 334 505 232 457 376 95 92 265 337 198 273 136 89 72 81 45 234 136 50 59 49 45
is_linear=0
shrinkage=0.0449308


Tree=13
num_leaves=33
num_cat=0
split_feature=566 293 0 735 292 507 579 194 196 738 113 136 274 539 558 532 525 209 40 297 518 649 613 181 225 320 762 68 715 526 686 213
split_gain=168.316 79.0126 66.92 49.1253 41.4015 36.4952 30.9109 30.6427 42.8743 29.2997 27.5538 26.5651 27.1474 21.7778 20.0752 19.5465 18.6245 18.1842 15.5635 15.4935 14.1051 13.5007 13.8458 12.9669 12.4147 12.2098 11.2542 9.95407 9.778 9.69387 9.20241 8.47191
threshold=0.027567289769649509 -0.044663300737738602 0.45416215062141424 -0.49671949446201319 0.17781095206737521 0.4618136882781983 -0.64690041542053212 0.13755051791667941 0.17069571465253833 -0.07046331092715262 -0.30859653651714319 0.40453782677650457 0.58523970842361461 -0.79175543785095204 -0.49568168818950648 -0.73696118593215931 -0.23184064030647275 -0.41172672808170313 -0.61488613486289967 0.45482526719570165 -0.45631314814090723 -0.39931678771972651 -0.2950217723846435 0.43453051149845129 0.39754348993301397 -0.72139900922775257 -0.62184864282608021 0.077270280569791808 0.23410879820585254 0.54826557636260997 -0.031449820846319192 0.14055350422859195
decision_type=2 2 2 2 2 2 2 2 2 2 2 2 2 2 2 2 2 2 2 2 2 2 2 2 2 2 2 2 2 2 2 2
left_child=1 16 6 4 18 14 15 8 26 23 21 25 -13 -9 -6 31 -1 29 -3 -10 28 22 -5 -8 -7 -12 30 -21 -15 -11 -4 -2
right_child=2 3 7 10 5 24 9 13 19 17 11 12 -14 20 -16 -17 -18 -19 -20 27 -22 -23 -24 -25 -26 -27 -28 -29 -30 -31 -32 -33
leaf_value=-0.0048811537198014216 0.025761364746194358 -0.0013024925271594369 0.0041187361471438514 0.005788886117243622 -0.043313749568348832 0.028888069880615545 0.0037891350545256912 0.039663265708987476 -0.057709174653664368 -0.051851576633128768 -0.045214262315690645 0.0076541511564084943 0.037646184383551863 0.0058256858794374436 0.0031283525787152433 -0.02903036083599746 -0.047186885422969935 -0.0090856150848905737 0.040057626180873607 -0.04114635004355556 0.0091671495688815732 -0.043312422475649467 -0.024112754734718488 -0.037025574420290495 -0.0066320321885359424 -0.0059839731336717942 0.024438574476462568 0.0024430678053015799 -0.021244594187491871 -0.031569119078461362 -0.032521514277989202 -0.010962769621129619
leaf_weight=33 34 20 40 72 21 187 49 32 49 165 22 682 67 42 176 41 59 31 200 22 160 25 55 23 22 60 32 20 74 69 21 20
leaf_count=33 34 20 40 72 21 187 49 32 49 165 22 682 67 42 176 41 59 31 200 22 160 25 55 23 22 60 32 20 74 69 21 20
internal_value=2.79417e-05 0.00841499 -0.015407 0.0107327 0.0205724 0.0120494 -0.0283122 -0.00406591 -0.0185767 -0.0346955 0.00446178 0.00768231 0.010344 0.00458969 -0.00180553 -0.00561937 -0.0320647 -0.0416053 0.0362783 -0.0405009 0.000504149 -0.0131151 -0.00712895 -0.00919769 0.0251281 -0.0165729 0.00283498 -0.0202982 -0.011407 -0.0458935 -0.00843293 0.0120812
internal_weight=2625 1701 924 1609 626 406 432 492 184 337 983 831 749 308 197 95 92 265 220 91 276 152 127 72 209 82 93 42 116 234 61 54
internal_count=2625 1701 924 1609 626 406 432 492 184 337 983 831 749 308 197 95 92 265 220 91 276 152 127 72 209 82 93 42 116 234 61 54
is_linear=0
shrinkage=0.0449308


Tree=14
num_leaves=33
num_cat=0
split_feature=566 293 0 204 131 400 233 616 100 659 609 557 255 190 136 598 390 260 188 60 11 178 64 302 2 205 104 0 2 393 511 189
split_gain=148.996 75.1313 65.0143 49.8058 40.4421 59.9255 40.0039 32.4259 36.7477 32.2029 28.7454 28.4618 25.2333 22.5226 19.5545 18.7165 17.559 17.2451 16.5411 16.1371 15.511 14.5471 14.3382 17.6381 13.3288 13.0761 12.813 11.6563 11.2442 10.8591 10.407 9.77766
threshold=-0.016891047358512875 0.059139821678400047 0.45603898167610174 -0.1823938190937042 0.31693312525749212 -0.18489547073841092 0.46458898484706884 -0.46804027259349817 0.51354297995567333 -0.76653602719306935 0.19381765276193622 0.20715503394603732 -0.94654291868209828 0.90900132060050975 0.43762943148612982 0.40249091386795049 0.4794012606143952 0.36944966018199926 -0.23825327306985852 -0.080484140664339052 -0.37935486435890192 0.70107972621917736 -0.226326048374176 1.1827717423439028 -0.13770702481269834 -0.21147665381431577 0.68276950716972362 0.58812481164932262 -0.16791775077581403 -0.22450575977563855 0.50414940714836132 -0.50789335370063771
decision_type=2 2 2 2 2 2 2 2 2 2 2 2 2 2 2 2 2 2 2 2 2 2 2 2 2 2 2 2 2 2 2 2
left_child=1 17 4 6 5 11 16 8 12 -5 15 19 -4 14 -11 -9 -3 27 24 -2 28 -14 23 -12 -8 -7 -15 -1 -6 -19 -22 -13
right_child=2 3 7 9 20 25 18 10 -10 13 22 31 21 26 -16 -17 -18 29 -20 -21 30 -23 -24 -25 -26 -27 -28 -29 -30 -31 -32 -33
leaf_value=-0.052802819157007304 -0.00056930852350634735 0.013191413334143981 0.038077249897957667 0.062768898305993345 0.0065152343799992195 -0.028828557186136201 0.032368990955059712 -0.057811804158468726 -0.050679171013819274 -0.015666471570056538 0.008711811937349925 0.0092749079507089046 0.0073260540809176452 -0.052724283902729208 0.0090095558066623296 -0.006620117523836783 -0.023650893741920306 -0.027985523751538115 -0.001472098495886721 -0.035238940305723845 -0.021679575107238436 -0.025963861310035495 -0.041810558186384537 -0.022159453168912387 0.061936523620298944 -0.06008526737817145 -0.0038313941140009303 -0.019709869008959626 -0.039855433342896082 0.013073864112010164 -0.05544913745898488 0.04976544048988097
leaf_weight=36 121 124 52 20 20 114 283 43 22 71 112 23 300 20 731 22 33 20 26 35 23 29 20 56 35 36 24 55 22 37 104 26
leaf_count=36 121 124 52 20 20 114 283 43 22 71 112 23 300 20 731 22 33 20 26 35 23 29 20 56 35 36 24 55 22 37 104 26
internal_value=0.00034712 0.00967228 -0.0116217 0.0129666 -0.0234225 -0.0147893 0.0242449 -0.00218838 0.00571873 0.00643624 -0.0147999 0.000981664 0.00898991 0.00509749 0.00681919 -0.0405615 0.00541732 -0.0207229 0.0328241 -0.00838006 -0.0415266 0.00437672 -0.00586551 -0.00155476 0.0356417 -0.0363682 -0.0261718 -0.0328605 -0.0176811 -0.00126346 -0.0493731 0.0308629
internal_weight=2695 1515 1180 1367 524 355 501 656 403 866 253 205 381 846 802 65 157 148 344 156 169 329 188 168 318 150 44 91 42 57 127 49
internal_count=2695 1515 1180 1367 524 355 501 656 403 866 253 205 381 846 802 65 157 148 344 156 169 329 188 168 318 150 44 91 42 57 127 49
is_linear=0
shrinkage=0.0449308


Tree=15
num_leaves=32
num_cat=0
split_feature=712 704 579 658 461 559 46 126 736 751 120 481 276 437 322 54 414 378 450 147 406 445 527 501 564 443 279 247 725 307 54
split_gain=137.425 92.5044 50.8197 46.9062 39.1874 42.1018 34.9034 33.1742 66.6611 33.2552 30.0817 26.7525 28.3206 24.502 23.4222 22.8317 20.4247 19.5655 18.6243 17.8206 18.1077 17.0204 16.857 13.0335 9.37339 8.82505 7.9382 6.92834 6.89942 6.70044 4.6961
threshold=-0.45727030932903284 0.74242720007896434 -0.64871305227279652 0.037021435797214515 -0.0165833281353116 0.4541201144456864 0.047175820916891105 -0.29543770849704737 0.0089128841646015661 0.35395526885986334 -0.043071130290627473 0.61017206311225902 -0.25818935036659235 0.0083535411395132559 0.21377459913492206 0.80913978815078746 0.2700259536504746 0.47760197520256048 -0.48151193559169764 0.25750209391117101 -0.093430891633033739 -0.015279188752174376 0.43231911957263952 0.70428851246833812 0.076625891029834761 0.099405687302351012 0.10738343745470048 0.01386773167178035 0.036550551652908332 0.16764888912439349 0.7654131054878236
decision_type=2 2 2 2 2 2 2 2 2 2 2 2 2 2 2 2 2 2 2 2 2 2 2 2 2 2 2 2 2 2 2
left_child=2 3 15 14 7 10 -3 8 -5 -9 -6 12 16 -14 23 18 -8 27 -1 20 21 22 -4 -2 26 -23 -20 -16 -19 -17 -25
right_child=1 6 19 4 5 -7 11 9 -10 -11 -12 -13 13 -15 17 29 -18 28 24 -21 -22 25 -24 30 -26 -27 -28 -29 -30 -31 -32
leaf_value=0.021244631500904422 -0.0048443653851328004 -0.052743157156827106 -0.038932158766259377 0.11764455279703986 0.0063799276296264331 -0.052025394063715466 -0.031151778160474649 0.0042083737751552018 0.028961458449351645 0.026294453424803903 0.056871212654703927 -0.044144921203875587 0.0033609632969924101 0.046695726217566451 0.0023189611754392326 0.044574434215019873 -0.0054205016060471962 0.036605184033182782 0.0045251852318823208 0.010949046381067714 -0.0032942734072389018 -0.034954184739619393 -0.0097141451240396574 -0.062019214819647485 -0.045168114691977575 -0.059717450498686216 -0.019533023029627838 -0.029506009984947512 0.0077349838978817038 0.0095333040467323934 -0.03051675549053099
leaf_weight=32 25 34 98 20 508 24 77 234 120 336 25 35 150 32 22 21 329 25 40 20 38 52 68 20 20 70 88 36 52 24 20
leaf_count=32 25 34 98 20 508 24 77 234 120 336 25 35 150 32 22 21 329 25 40 20 38 52 68 20 20 70 88 36 52 24 20
internal_value=0.000330658 0.0055929 -0.0192356 0.0118691 0.0150623 0.00612982 -0.00841439 0.0220634 0.041681 0.0172357 0.00875898 -0.00598611 -0.00370553 0.0110096 -0.00833785 -0.00259176 -0.0103129 0.00230266 -0.009766 -0.0300453 -0.0325743 -0.0364219 -0.0269928 -0.0304958 -0.0165028 -0.0492078 -0.0119817 -0.0173645 0.0171738 0.0259982 -0.0464063
internal_weight=2695 2124 571 1467 1267 557 657 710 140 570 533 623 588 182 200 225 406 135 180 346 326 288 166 65 148 122 128 58 77 45 40
internal_count=2695 2124 571 1467 1267 557 657 710 140 570 533 623 588 182 200 225 406 135 180 346 326 288 166 65 148 122 128 58 77 45 40
is_linear=0
shrinkage=0.0449308


Tree=16
num_leaves=33
num_cat=0
split_feature=566 0 760 204 597 131 579 723 522 222 89 580 432 422 97 648 382 479 23 572 230 274 137 692 756 515 103 735 34 386 729 507
split_gain=127.281 69.5367 45.252 43.4846 43.7716 35.6566 33.131 32.8792 26.842 24.0852 23.466 21.9605 21.3792 23.9245 17.7869 17.3612 16.5719 15.5285 15.0429 18.5464 17.6291 16.9779 13.476 11.6371 10.3945 10.2723 9.89755 9.59831 9.25675 9.24687 7.27366 7.22317
threshold=-0.040098665282130234 0.33809067308902746 -0.63815638422965992 -0.1823938190937042 -0.61911997199058522 0.43290695548057562 -0.59798806905746449 -1.2025417089462278 -0.6270446479320525 0.73789435625076305 0.059078425168991096 1.5579373240470888 0.69017475843429577 0.47770865261554724 0.21045143157243731 0.23041877895593646 0.067812558263540282 0.0076515863183885821 0.90837842226028453 0.11577593162655832 0.62924695014953624 0.46835283935070043 -0.005916142836213111 -0.9581872522830962 0.053814845159649856 -0.7161707580089568 0.40790764987468725 -0.50213578343391407 -0.091961551457643495 0.030441655777394775 -0.19821920990943906 0.39220036566257482
decision_type=2 2 2 2 2 2 2 2 2 2 2 2 2 2 2 2 2 2 2 2 2 2 2 2 2 2 2 2 2 2 2 2
left_child=3 12 -3 4 10 7 18 8 -4 -6 -1 22 23 25 -9 31 27 -17 19 21 -20 -5 -7 -2 30 -14 -26 -12 -27 -21 -11 -8
right_child=1 2 5 6 9 11 15 14 -10 24 16 -13 13 -15 -16 17 -18 -19 20 29 -22 -23 -24 -25 26 28 -28 -29 -30 -31 -32 -33
leaf_value=-0.044270966755261057 -0.012306346084463772 -0.048744214766013143 -0.00036220283450718216 0.0089632214362430993 0.0048202255193127413 -0.05796004524325718 0.024130743193984071 -0.039716893795991998 0.02038073540178172 0.028793259360795059 0.044151386656173228 0.009254561361529497 -0.055964661759341124 0.013102923469381465 -0.0083474305444128476 -0.044101622732004714 -0.023120466812303734 -0.00048450895629640895 0.00089406255607826562 -0.023464722281814863 -0.04484214555580484 0.028171328996142136 -0.013730440688674834 -0.047409787026118679 0.070773763450532268 -0.0091298832730008252 0.036699252061316558 0.0014739403457606096 -0.042048240403401119 0.0021505701617297638 0.001300719965082104 -0.010913427089519468
leaf_weight=25 23 45 520 458 76 43 20 49 166 110 22 21 22 38 145 54 24 24 74 41 22 117 21 123 20 49 142 21 27 92 24 29
leaf_count=25 23 45 520 458 76 43 20 49 166 110 22 21 22 38 145 54 24 24 74 41 22 117 21 123 20 49 142 21 27 92 24 29
internal_value=-6.13073e-05 -0.0102241 -0.0047108 0.00934801 0.0205864 -0.00265168 0.00374185 2.80182e-05 0.00465152 0.0274513 -0.00712444 -0.0304367 -0.0299526 -0.0170759 -0.0162972 -0.0175722 0.0066837 -0.030741 0.00711446 0.00938063 -0.00955158 0.0128803 -0.0435263 -0.0419126 0.0332464 -0.0288223 0.0409434 0.0234229 -0.0208919 -0.00571648 0.0239027 0.00330749
internal_weight=2687 1292 1010 1395 464 965 931 880 686 372 92 85 282 136 194 127 67 78 804 708 96 575 64 146 296 98 162 43 76 133 134 49
internal_count=2687 1292 1010 1395 464 965 931 880 686 372 92 85 282 136 194 127 67 78 804 708 96 575 64 146 296 98 162 43 76 133 134 49
is_linear=0
shrinkage=0.0449308


Tree=17
num_leaves=33
num_cat=0
split_feature=566 0 550 760 223 131 32 765 436 609 487 284 0 96 577 252 232 460 760 30 423 509 337 571 371 604 169 541 404 35 715 126
split_gain=116.125 63.4368 47.564 41.2775 40.806 32.5253 31.5841 29.8875 24.7894 23.5847 23.2113 22.6585 20.8674 18.9662 19.8692 15.9823 15.3643 16.1334 13.836 13.639 14.0014 11.6603 15.4967 10.7331 10.6109 9.2312 9.1824 9.0755 8.80485 8.37116 6.26021 6.05894
threshold=-0.040098665282130234 0.33809067308902746 -0.22119246423244474 -0.63815638422965992 0.098783183842897429 0.43290695548057562 0.83715966343879711 -0.079224739223718629 -0.51016798615455616 0.2390115484595299 -0.38267618417739863 1.6852636337280276 0.52905288338661205 -0.60802507400512684 -1.260100722312927 0.05518156290054322 0.52431267499923717 -0.012703641317784784 -0.66368374228477467 0.011478615924715998 -0.1396183371543884 0.43642477691173559 0.086755227297544493 -0.65092813968658436 0.38965620100498205 -0.86213210225105275 0.5761917531490327 -0.23241006582975385 -0.20086270570755002 0.38907344639301306 0.1244826875627041 -0.22959327697753903
decision_type=2 2 2 2 2 2 2 2 2 2 2 2 2 2 2 2 2 2 2 2 2 2 2 2 2 2 2 2 2 2 2 2
left_child=2 13 4 -3 16 6 8 11 -5 25 23 -6 21 14 -2 -12 19 -18 -14 20 -1 22 -4 -9 -16 -7 27 -20 -8 31 -21 -15
right_child=1 3 12 5 7 9 28 10 -10 -11 15 -13 18 29 24 -17 17 -19 26 30 -22 -23 -24 -25 -26 -27 -28 -29 -30 -31 -32 -33
leaf_value=-0.0023405010040446401 0.026264962793165262 -0.046555377317573823 -0.066506389865730764 0.026625891802925249 0.09032080390235489 -0.023337212587220508 -0.058170660717755389 0.011131742671240872 -0.00043943632917410646 0.0020344930179538208 0.0070427540688832637 0.034341954974488921 -0.032801647489443711 -0.049097969972314068 -0.044387119919015582 0.034091082101250156 -0.046295042502335515 -0.0014075867415684477 0.010086504971355392 0.0065712223809756085 0.022009123416387964 0.00010627524806158243 -0.017571309815025582 -0.017727241701090315 -0.0093749876234314709 -0.061894358898759695 -0.024675896416381356 -0.016093793299466624 -0.017554502229545719 -0.013007832147440909 -0.0094845747192170548 -0.031361008719708199
leaf_weight=63 21 45 22 75 20 21 21 137 761 31 59 56 23 85 29 180 20 85 189 129 192 24 33 32 45 33 21 31 23 26 79 76
leaf_count=63 21 45 22 75 20 21 21 137 761 31 59 56 23 85 29 180 20 85 189 129 192 24 33 32 45 33 21 31 23 26 79 76
internal_value=-5.87991e-05 -0.00976602 0.00892861 -0.00449988 0.0136671 -0.00253305 2.60601e-05 0.0232558 0.00198427 -0.02907 0.0184177 0.0491562 -0.00559184 -0.0286095 -0.0121888 0.0274335 0.00548811 -0.0100082 0.000455195 0.00901208 0.0159768 -0.0258477 -0.0372463 0.00563986 -0.0231652 -0.0469985 0.00365024 0.00637635 -0.0370608 -0.0369256 0.000451917 -0.0407586
internal_weight=2687 1292 1395 1010 1052 965 880 484 836 85 408 76 343 282 95 239 568 105 264 463 255 79 55 169 74 54 241 220 44 187 208 161
internal_count=2687 1292 1395 1010 1052 965 880 484 836 85 408 76 343 282 95 239 568 105 264 463 255 79 55 169 74 54 241 220 44 187 208 161
is_linear=0
shrinkage=0.0449308


Tree=18
num_leaves=33
num_cat=0
split_feature=566 85 293 131 746 460 550 223 615 603 432 729 356 511 95 158 539 706 568 638 270 291 415 319 651 411 219 664 66 68 706 401
split_gain=119.001 55.311 44.1253 43.2877 31.0308 28.7097 28.269 31.5323 25.9736 24.7743 28.6435 21.9288 20.9083 20.2817 17.8585 17.8281 16.3165 15.8072 15.7539 15.4713 14.2093 13.5131 12.8714 12.7662 11.8548 11.6174 12.5841 10.1282 10.0971 11.599 10.0153 8.86043
threshold=-0.041618380695581429 0.062985945492982878 0.12085723131895067 0.38312681019306188 -0.51420867443084706 -0.11323428153991698 -0.21686770766973493 0.087161388248205199 -0.27231812477111811 0.98318883776664745 0.68284925818443309 -0.18167222291231153 -0.2218811213970184 0.57212984561920177 0.30978800356388098 -0.42047993838787073 -0.74858376383781422 0.49472896754741674 0.95951062440872203 -0.0074564300011843434 -0.33031527698040003 -0.23190467804670331 0.33605144917964941 0.86348408460617077 0.16909653693437579 0.39276303350925451 -0.45903354883193964 -0.88802009820938099 -0.199590228497982 0.020923418924212459 0.14664523303508761 0.38128516077995306
decision_type=2 2 2 2 2 2 2 2 2 2 2 2 2 2 2 2 2 2 2 2 2 2 2 2 2 2 2 2 2 2 2 2
left_child=2 3 15 9 5 19 7 25 -9 10 31 -10 -7 14 24 28 -12 20 -5 -3 -6 -21 -16 -11 -8 30 -27 -14 -1 -30 -4 -2
right_child=1 4 6 18 17 12 13 8 11 23 16 -13 27 -15 22 -17 -18 -19 -20 21 -22 -23 -24 -25 -26 26 -28 -29 29 -31 -32 -33
